0 1 1 100 0.123631
1 1 1 100 0.876369
0 2 1 100 0.25853
1 2 1 100 0.74147
0 3 1 100 0.000690375
1 3 1 100 0.99931
0 4 1 100 3.78382e-05
1 4 1 100 0.999962
0 5 1 100 0.000495019
1 5 1 100 0.999505
0 6 1 100 6.6022e-06
1 6 1 100 0.999993
1 7 1 100 1
1 8 1 100 1
1 9 1 100 1
0 1 2 100 0.0360293
1 1 2 100 0.890241
2 1 2 100 0.0737299
0 2 2 100 0.22095
1 2 2 100 0.749172
2 2 2 100 0.0298776
0 3 2 100 0.131229
1 3 2 100 0.621728
2 3 2 100 0.247043
0 4 2 100 0.021227
1 4 2 100 0.540527
2 4 2 100 0.438245
0 5 2 100 0.0561604
1 5 2 100 0.330915
2 5 2 100 0.612925
0 6 2 100 0.0478409
1 6 2 100 0.280463
2 6 2 100 0.671696
0 7 2 100 0.00759638
1 7 2 100 0.19631
2 7 2 100 0.796094
0 8 2 100 0.00157612
1 8 2 100 0.200012
2 8 2 100 0.798412
0 9 2 100 0.00338359
1 9 2 100 0.114271
2 9 2 100 0.882346
0 10 2 100 0.0173202
1 10 2 100 0.0939439
2 10 2 100 0.888736
1 11 2 100 0.125
2 11 2 100 0.875
1 12 2 100 0.25
2 12 2 100 0.75
2 13 2 100 1
2 14 2 100 1
2 15 2 100 1
0 1 3 100 0.0126175
1 1 3 100 0.944389
2 1 3 100 0.0232854
3 1 3 100 0.0197084
0 2 3 100 0.23456
1 2 3 100 0.654169
2 2 3 100 0.090066
3 2 3 100 0.0212058
0 3 3 100 0.087018
1 3 3 100 0.534124
2 3 3 100 0.284749
3 3 3 100 0.0941092
0 4 3 100 0.0791901
1 4 3 100 0.35684
2 4 3 100 0.351925
3 4 3 100 0.212046
0 5 3 100 0.068639
1 5 3 100 0.215778
2 5 3 100 0.403891
3 5 3 100 0.311692
0 6 3 100 0.0635236
1 6 3 100 0.106183
2 6 3 100 0.455133
3 6 3 100 0.37516
0 7 3 100 0.0512092
1 7 3 100 0.0809873
2 7 3 100 0.418677
3 7 3 100 0.449127
0 8 3 100 0.0528466
1 8 3 100 0.0115657
2 8 3 100 0.321595
3 8 3 100 0.613992
0 9 3 100 0.0066714
1 9 3 100 0.0265873
2 9 3 100 0.244156
3 9 3 100 0.722585
0 10 3 100 0.000458269
1 10 3 100 0.0182338
2 10 3 100 0.165742
3 10 3 100 0.815566
0 11 3 100 0.000976071
1 11 3 100 0.0742254
2 11 3 100 0.108868
3 11 3 100 0.81593
0 12 3 100 0.00394869
1 12 3 100 0.00631976
2 12 3 100 2.89099e-05
3 12 3 100 0.989703
0 13 3 100 2.89753e-06
2 13 3 100 0.499346
3 13 3 100 0.500651
1 14 3 100 7.10089e-05
2 14 3 100 0.499929
3 14 3 100 0.5
0 1 4 100 0.000746963
1 1 4 100 0.56091
2 1 4 100 0.323222
3 1 4 100 0.0962177
4 1 4 100 0.0189033
0 2 4 100 0.249175
1 2 4 100 0.195415
2 2 4 100 0.376831
3 2 4 100 0.113028
4 2 4 100 0.065551
0 3 4 100 0.0458729
1 3 4 100 0.238696
2 3 4 100 0.328188
3 3 4 100 0.212726
4 3 4 100 0.174517
0 4 4 100 0.0527146
1 4 4 100 0.179357
2 4 4 100 0.21408
3 4 4 100 0.34503
4 4 4 100 0.208818
0 5 4 100 0.0612499
1 5 4 100 0.140395
2 5 4 100 0.239076
3 5 4 100 0.256342
4 5 4 100 0.302938
0 6 4 100 0.0553257
1 6 4 100 0.113163
2 6 4 100 0.236016
3 6 4 100 0.201146
4 6 4 100 0.39435
0 7 4 100 0.0927003
1 7 4 100 0.037667
2 7 4 100 0.231367
3 7 4 100 0.19145
4 7 4 100 0.446816
0 8 4 100 0.0221846
1 8 4 100 0.0213264
2 8 4 100 0.297848
3 8 4 100 0.212349
4 8 4 100 0.446292
0 9 4 100 2.18594e-05
1 9 4 100 0.035714
2 9 4 100 0.249977
3 9 4 100 0.182949
4 9 4 100 0.531339
0 10 4 100 0.065262
2 10 4 100 0.400004
3 10 4 100 0.0700264
4 10 4 100 0.464708
0 11 4 100 0.111111
2 11 4 100 0.134895
4 11 4 100 0.753994
2 12 4 100 0.333333
4 12 4 100 0.666667
0 1 5 100 0.0043473
1 1 5 100 0.156878
2 1 5 100 0.329937
3 1 5 100 0.098948
4 1 5 100 0.406668
5 1 5 100 0.00322196
0 2 5 100 0.259788
1 2 5 100 0.0577196
2 2 5 100 0.306381
3 2 5 100 0.0539611
4 2 5 100 0.285516
5 2 5 100 0.0366347
0 3 5 100 0.0805078
1 3 5 100 0.117815
2 3 5 100 0.27378
3 3 5 100 0.181917
4 3 5 100 0.237757
5 3 5 100 0.108223
0 4 5 100 0.0550169
1 4 5 100 0.152943
2 4 5 100 0.157506
3 4 5 100 0.203477
4 4 5 100 0.235532
5 4 5 100 0.195524
0 5 5 100 0.0826724
1 5 5 100 0.13753
2 5 5 100 0.20855
3 5 5 100 0.144029
4 5 5 100 0.15041
5 5 5 100 0.276809
0 6 5 100 0.0557484
1 6 5 100 0.086005
2 6 5 100 0.118636
3 6 5 100 0.166488
4 6 5 100 0.153269
5 6 5 100 0.419853
0 7 5 100 0.0458999
1 7 5 100 0.106087
2 7 5 100 0.0836768
3 7 5 100 0.191677
4 7 5 100 0.107874
5 7 5 100 0.464786
0 8 5 100 0.0591483
1 8 5 100 0.0736613
2 8 5 100 0.137741
3 8 5 100 0.190253
4 8 5 100 0.089865
5 8 5 100 0.449331
0 9 5 100 0.0240281
1 9 5 100 0.0386799
2 9 5 100 0.141646
3 9 5 100 0.239581
4 9 5 100 0.0981937
5 9 5 100 0.457872
0 10 5 100 0.019386
1 10 5 100 0.0338846
2 10 5 100 0.0854176
3 10 5 100 0.269953
4 10 5 100 0.101704
5 10 5 100 0.489655
0 11 5 100 0.0255157
2 11 5 100 0.0764816
3 11 5 100 0.298517
4 11 5 100 0.00339346
5 11 5 100 0.596092
0 12 5 100 0.058821
2 12 5 100 0.0595871
3 12 5 100 0.528431
4 12 5 100 3.77754e-05
5 12 5 100 0.353124
2 13 5 100 2.84624e-05
3 13 5 100 0.624963
4 13 5 100 7.77438e-06
5 13 5 100 0.375001
3 14 5 100 0.989978
5 14 5 100 0.0100223
0 1 6 100 0.00218001
1 1 6 100 0.0608191
2 1 6 100 0.129437
3 1 6 100 0.233477
4 1 6 100 0.491999
5 1 6 100 0.0820742
6 1 6 100 1.39363e-05
0 2 6 100 0.458084
1 2 6 100 0.00168881
2 2 6 100 0.141529
3 2 6 100 0.000151523
4 2 6 100 0.264301
5 2 6 100 0.100909
6 2 6 100 0.0333367
0 3 6 100 0.0587849
1 3 6 100 0.10105
2 3 6 100 0.396329
3 3 6 100 0.13225
4 3 6 100 0.113384
5 3 6 100 0.0977209
6 3 6 100 0.100481
0 4 6 100 0.0906276
1 4 6 100 0.197663
2 4 6 100 0.203786
3 4 6 100 0.0659271
4 4 6 100 0.184997
5 4 6 100 0.107375
6 4 6 100 0.149624
0 5 6 100 0.102332
1 5 6 100 0.163733
2 5 6 100 0.282723
3 5 6 100 0.0702704
4 5 6 100 0.0620618
5 5 6 100 0.12833
6 5 6 100 0.190549
0 6 6 100 0.0397804
1 6 6 100 0.162908
2 6 6 100 0.174563
3 6 6 100 0.0871092
4 6 6 100 0.0603539
5 6 6 100 0.173382
6 6 6 100 0.301903
0 7 6 100 0.0324107
1 7 6 100 0.250079
2 7 6 100 0.0657424
3 7 6 100 0.118088
4 7 6 100 0.0546747
5 7 6 100 0.191678
6 7 6 100 0.287327
0 8 6 100 0.0295559
1 8 6 100 0.227004
2 8 6 100 0.0821083
3 8 6 100 0.0609325
4 8 6 100 0.0197695
5 8 6 100 0.195195
6 8 6 100 0.385435
0 9 6 100 0.0616307
1 9 6 100 0.0601044
2 9 6 100 0.082305
3 9 6 100 0.0819073
4 9 6 100 0.0594285
5 9 6 100 0.154108
6 9 6 100 0.500516
0 10 6 100 0.0086001
2 10 6 100 0.0895653
3 10 6 100 0.138306
4 10 6 100 0.135379
5 10 6 100 0.175433
6 10 6 100 0.452717
0 11 6 100 0.000741856
2 11 6 100 0.13063
3 11 6 100 0.164211
4 11 6 100 0.0878703
5 11 6 100 0.139062
6 11 6 100 0.477485
0 12 6 100 0.000311026
2 12 6 100 0.153846
3 12 6 100 0.0769221
4 12 6 100 0.23326
5 12 6 100 9.46151e-07
6 12 6 100 0.53566
2 13 6 100 0.166677
4 13 6 100 0.333333
5 13 6 100 0.333322
6 13 6 100 0.166667
4 14 6 100 0.249993
5 14 6 100 0.250006
6 14 6 100 0.500001
6 15 6 100 1
6 16 6 100 1
0 1 7 100 0.0010509
2 1 7 100 3.72796e-05
3 1 7 100 0.199871
4 1 7 100 0.73395
5 1 7 100 0.000156087
7 1 7 100 0.0649351
0 2 7 100 0.537534
2 2 7 100 0.200674
3 2 7 100 0.00017753
4 2 7 100 0.255827
6 2 7 100 1.7569e-06
7 2 7 100 0.0057852
0 3 7 100 0.0562605
1 3 7 100 0.2
2 3 7 100 0.408394
3 3 7 100 0.199861
4 3 7 100 0.0674272
5 3 7 100 0.0351936
6 3 7 100 7.40149e-05
7 3 7 100 0.0327898
1 4 7 100 0.399985
2 4 7 100 0.2
4 4 7 100 0.199835
5 4 7 100 0.000110239
6 4 7 100 0.133333
7 4 7 100 0.0667359
0 5 7 100 0.0541176
1 5 7 100 0.307611
2 5 7 100 0.231423
3 5 7 100 9.2894e-06
4 5 7 100 0.022224
5 5 7 100 0.0769231
6 5 7 100 0.307692
1 6 7 100 0.230555
2 6 7 100 0.153953
3 6 7 100 0.000106556
5 6 7 100 0.230769
6 6 7 100 0.307692
7 6 7 100 0.0769231
1 7 7 100 0.272967
5 7 7 100 0.272727
6 7 7 100 0.181818
7 7 7 100 0.272488
1 8 7 100 0.222249
6 8 7 100 0.333333
7 8 7 100 0.444418
1 9 7 100 0.166667
5 9 7 100 0.333333
6 9 7 100 0.333333
7 9 7 100 0.166667
5 10 7 100 0.2
6 10 7 100 0.2
7 10 7 100 0.6
5 11 7 100 0.333333
7 11 7 100 0.666667
7 12 7 100 1
7 13 7 100 1
0 1 9 100 0.000586393
1 1 9 100 0.0148835
2 1 9 100 0.150678
3 1 9 100 0.166068
4 1 9 100 0.523422
5 1 9 100 0.144352
7 1 9 100 9.98227e-06
0 2 9 100 0.661812
1 2 9 100 0.00470596
2 2 9 100 0.166658
3 2 9 100 5.53559e-05
4 2 9 100 0.16676
9 2 9 100 8.5102e-06
0 3 9 100 0.0152516
1 3 9 100 0.166667
2 3 9 100 0.318395
3 3 9 100 0.33302
9 3 9 100 0.166667
1 4 9 100 0.000499032
2 4 9 100 0.165504
4 4 9 100 0.482931
5 4 9 100 0.0165698
9 4 9 100 0.334496
0 5 9 100 0.166664
1 5 9 100 0.333334
3 5 9 100 2.56115e-06
5 5 9 100 0.166666
9 5 9 100 0.333334
2 6 9 100 0.166667
6 6 9 100 0.203452
8 6 9 100 0.296548
9 6 9 100 0.333333
2 7 9 100 0.000350125
7 7 9 100 0.5
9 7 9 100 0.49965
1 8 9 100 0.25
5 8 9 100 0.25
9 8 9 100 0.5
1 9 9 100 0.330468
2 9 9 100 0.031059
6 9 9 100 0.232738
8 9 9 100 0.0172621
9 9 9 100 0.388473
1 10 9 100 9.40162e-06
2 10 9 100 1.49499e-05
6 10 9 100 4.96973e-05
7 10 9 100 0.25
8 10 9 100 0.24995
9 10 9 100 0.499975
7 11 9 100 0.333333
8 11 9 100 3.32177e-05
9 11 9 100 0.666633
1 12 9 100 4.08564e-06
2 12 9 100 0.00030316
5 12 9 100 0.666359
6 12 9 100 0.00101981
7 12 9 100 0.00236064
8 12 9 100 3.44146e-06
9 12 9 100 0.32995
1 13 9 100 5.0847e-06
6 13 9 100 0.474126
8 13 9 100 0.0258689
9 13 9 100 0.5
7 14 9 100 0.5
9 14 9 100 0.5
9 15 9 100 1
9 16 9 100 1
