1 0 100 4 1
2 1 100 4 1
2 2 100 4 0.832281
4 2 100 4 0.167719
3 3 100 4 0.5
4 3 100 4 0.5
1 4 100 4 1
1 5 100 4 0.602264
2 5 100 4 0.200767
3 5 100 4 0.196968
1 6 100 4 1.05868e-05
2 6 100 4 0.358053
3 6 100 4 0.641928
4 6 100 4 7.82272e-06
1 7 100 4 0.000366845
2 7 100 4 0.0363054
3 7 100 4 0.000370764
4 7 100 4 0.962957
1 8 100 4 3.68037e-05
2 8 100 4 0.0164667
3 8 100 4 8.2384e-05
4 8 100 4 0.983414
2 9 100 4 0.00195529
3 9 100 4 0.988132
4 9 100 4 0.00991319
1 10 100 4 0.995691
2 10 100 4 0.00374642
3 10 100 4 0.000233662
4 10 100 4 0.000329372
1 11 100 4 0.00267311
2 11 100 4 0.725898
3 11 100 4 0.271109
4 11 100 4 0.000320728
2 12 100 4 0.999958
4 12 100 4 4.18284e-05
2 13 100 4 0.911429
3 13 100 4 0.0885714
2 14 100 4 0.0015199
3 14 100 4 0.99848
3 15 100 4 0.0039788
4 15 100 4 0.996021
3 16 100 4 0.999938
4 16 100 4 6.17453e-05
3 17 100 4 0.000219856
4 17 100 4 0.99978
2 0 100 5 0.50239
3 0 100 5 0.494276
4 0 100 5 0.00333348
1 1 100 5 1
3 2 100 5 0.775772
4 2 100 5 0.222164
5 2 100 5 0.00206438
1 3 100 5 7.74246e-06
3 3 100 5 0.00602639
4 3 100 5 0.496983
5 3 100 5 0.496983
1 4 100 5 0.661436
2 4 100 5 0.00840898
3 4 100 5 0.330155
1 5 100 5 0.721699
2 5 100 5 0.240688
4 5 100 5 0.0376132
2 6 100 5 0.849425
4 6 100 5 0.150575
1 7 100 5 0.000919877
2 7 100 5 0.83552
3 7 100 5 0.000699594
4 7 100 5 0.0114211
5 7 100 5 0.151439
1 8 100 5 0.00506513
2 8 100 5 0.0184423
3 8 100 5 5.22501e-05
4 8 100 5 0.611744
5 8 100 5 0.364696
1 9 100 5 0.00148602
2 9 100 5 0.0106848
3 9 100 5 0.00328868
4 9 100 5 0.244761
5 9 100 5 0.73978
1 10 100 5 0.237096
2 10 100 5 0.377214
3 10 100 5 0.148615
4 10 100 5 0.000627639
5 10 100 5 0.236448
1 11 100 5 5.73796e-05
2 11 100 5 0.932579
3 11 100 5 0.0297198
4 11 100 5 0.0376292
5 11 100 5 1.45841e-05
2 12 100 5 0.470643
3 12 100 5 0.0999765
4 12 100 5 7.74482e-05
5 12 100 5 0.429303
2 13 100 5 0.954139
3 13 100 5 0.0376496
4 13 100 5 0.00282933
5 13 100 5 0.00538207
2 14 100 5 4.70559e-06
3 14 100 5 1.31421e-05
4 14 100 5 0.988096
5 14 100 5 0.0118862
2 15 100 5 2.16349e-06
3 15 100 5 0.596767
4 15 100 5 0.000169018
5 15 100 5 0.403062
1 16 100 5 1.28501e-06
2 16 100 5 0.0021583
3 16 100 5 0.0982431
4 16 100 5 0.11206
5 16 100 5 0.787538
3 17 100 5 0.324685
4 17 100 5 0.673898
5 17 100 5 0.00141725
1 18 100 5 1.32852e-06
2 18 100 5 0.000367674
3 18 100 5 0.000273054
4 18 100 5 0.00137344
5 18 100 5 0.997985
2 19 100 5 0.976069
4 19 100 5 0.0239307
2 20 100 5 0.111973
3 20 100 5 0.146007
4 20 100 5 0.00417437
5 20 100 5 0.737846
4 21 100 5 0.974181
5 21 100 5 0.0258194
2 22 100 5 1.26814e-05
4 22 100 5 7.104e-06
5 22 100 5 0.99998
3 23 100 5 1
3 24 100 5 0.998562
4 24 100 5 0.000552758
5 24 100 5 0.000885044
3 25 100 5 0.999765
4 25 100 5 0.000229248
5 25 100 5 6.04445e-06
3 26 100 5 2.12237e-05
4 26 100 5 0.99994
5 26 100 5 3.87555e-05
2 0 100 6 0.00304035
3 0 100 6 0.548994
4 0 100 6 0.000118624
5 0 100 6 0.447847
1 1 100 6 1
2 2 100 6 0.615431
5 2 100 6 0.384569
4 3 100 6 1
1 4 100 6 0.999894
2 4 100 6 0.000105834
1 5 100 6 0.751477
2 5 100 6 0.248517
3 5 100 6 6.21208e-06
1 6 100 6 0.00859575
2 6 100 6 0.173334
3 6 100 6 0.812415
5 6 100 6 0.00565498
2 7 100 6 1
1 8 100 6 0.00133141
2 8 100 6 0.883192
3 8 100 6 0.00280763
4 8 100 6 0.0932058
5 8 100 6 0.0194636
1 9 100 6 0.000642055
2 9 100 6 0.00754369
3 9 100 6 0.384531
4 9 100 6 0.607282
5 9 100 6 2.10871e-06
1 10 100 6 7.32113e-05
2 10 100 6 0.512903
3 10 100 6 0.00818672
4 10 100 6 0.46777
5 10 100 6 0.0110679
1 11 100 6 0.00547269
2 11 100 6 0.0747002
3 11 100 6 0.903958
4 11 100 6 0.000161879
5 11 100 6 0.0157069
2 12 100 6 0.0361283
3 12 100 6 0.5958
4 12 100 6 0.170689
5 12 100 6 0.000309593
6 12 100 6 0.197073
2 13 100 6 4.39201e-06
3 13 100 6 0.00440677
4 13 100 6 0.343663
5 13 100 6 0.487624
6 13 100 6 0.164301
2 14 100 6 0.0035127
3 14 100 6 1.97003e-05
4 14 100 6 0.00124403
5 14 100 6 0.250809
6 14 100 6 0.744415
2 15 100 6 0.288157
3 15 100 6 9.08954e-06
4 15 100 6 0.0249808
5 15 100 6 0.241727
6 15 100 6 0.445126
2 16 100 6 0.000212997
4 16 100 6 0.00144936
5 16 100 6 0.996766
6 16 100 6 0.00157152
2 17 100 6 1.88687e-05
3 17 100 6 1.01128e-06
4 17 100 6 0.384402
5 17 100 6 0.318109
6 17 100 6 0.297469
2 18 100 6 0.634811
3 18 100 6 0.000350109
4 18 100 6 0.000525236
5 18 100 6 2.80282e-06
6 18 100 6 0.364311
3 19 100 6 0.00218531
4 19 100 6 4.99075e-06
5 19 100 6 0.00140762
6 19 100 6 0.996402
2 20 100 6 0.000124807
3 20 100 6 1.35105e-05
4 20 100 6 0.262809
5 20 100 6 0.607963
6 20 100 6 0.12909
4 21 100 6 2.38576e-05
5 21 100 6 0.0202479
6 21 100 6 0.979728
3 22 100 6 1
2 0 100 7 0.00404034
3 0 100 7 0.491845
4 0 100 7 0.15452
5 0 100 7 0.349595
1 1 100 7 1
2 2 100 7 0.348226
3 2 100 7 0.0655292
4 2 100 7 0.127541
5 2 100 7 0.327646
6 2 100 7 0.131058
2 3 100 7 0.0982142
3 3 100 7 0.00483321
4 3 100 7 0.00566185
5 3 100 7 0.297095
6 3 100 7 0.2971
7 3 100 7 0.297095
1 4 100 7 0.00171349
2 4 100 7 0.000845863
3 4 100 7 0.997441
1 5 100 7 0.686047
2 5 100 7 0.313933
3 5 100 7 2.00442e-05
1 6 100 7 0.643776
2 6 100 7 0.000198986
3 6 100 7 0.351925
4 6 100 7 0.00356497
5 6 100 7 0.000529598
7 6 100 7 4.96596e-06
1 7 100 7 0.000190536
2 7 100 7 0.728297
3 7 100 7 0.14233
4 7 100 7 0.129181
5 7 100 7 1.4807e-06
2 8 100 7 0.000168786
3 8 100 7 0.0119128
4 8 100 7 0.491993
5 8 100 7 0.495919
7 8 100 7 6.81916e-06
1 9 100 7 0.000163346
2 9 100 7 0.0310848
3 9 100 7 0.378262
4 9 100 7 0.427096
5 9 100 7 0.0544641
6 9 100 7 2.54659e-06
7 9 100 7 0.108927
1 10 100 7 1.1186e-05
2 10 100 7 0.0220041
3 10 100 7 0.384941
4 10 100 7 0.220877
5 10 100 7 0.0184881
6 10 100 7 0.20126
7 10 100 7 0.152419
1 11 100 7 0.000950299
2 11 100 7 0.0101345
3 11 100 7 0.00461885
4 11 100 7 0.238071
5 11 100 7 0.18603
6 11 100 7 0.559071
7 11 100 7 0.00112504
1 12 100 7 0.000121051
2 12 100 7 0.0344204
3 12 100 7 0.000801841
4 12 100 7 0.168817
5 12 100 7 0.0780712
6 12 100 7 0.445059
7 12 100 7 0.272709
2 13 100 7 0.0008892
3 13 100 7 0.0141152
4 13 100 7 0.000521818
5 13 100 7 0.495486
6 13 100 7 0.244394
7 13 100 7 0.244595
1 14 100 7 0.0036398
2 14 100 7 0.000373183
3 14 100 7 1.52841e-05
4 14 100 7 0.00153388
5 14 100 7 0.000304047
6 14 100 7 0.11432
7 14 100 7 0.879813
2 15 100 7 0.178794
3 15 100 7 2.1427e-05
4 15 100 7 0.000286181
5 15 100 7 1.2334e-06
6 15 100 7 0.323634
7 15 100 7 0.497264
1 16 100 7 0.09198
2 16 100 7 0.00383752
3 16 100 7 0.0184974
4 16 100 7 0.000206362
6 16 100 7 4.6586e-05
7 16 100 7 0.885432
2 17 100 7 0.202594
5 17 100 7 0.00195852
7 17 100 7 0.795447
1 18 100 7 3.38245e-06
2 18 100 7 0.00907134
3 18 100 7 0.569123
4 18 100 7 0.420391
5 18 100 7 0.00141098
3 19 100 7 0.103489
4 19 100 7 0.896511
2 20 100 7 0.994638
3 20 100 7 0.00056061
4 20 100 7 0.00205397
5 20 100 7 0.00274727
3 21 100 7 0.0292302
5 21 100 7 1.88256e-05
6 21 100 7 0.970735
7 21 100 7 1.55695e-05
7 22 100 7 1
2 0 100 8 0.0149841
3 0 100 8 0.351704
4 0 100 8 0.160446
5 0 100 8 0.47279
6 0 100 8 7.53512e-05
1 1 100 8 1
2 2 100 8 0.233995
4 2 100 8 0.202603
5 2 100 8 0.14085
6 2 100 8 0.211276
7 2 100 8 0.211276
2 3 100 8 0.135958
4 3 100 8 0.000873421
5 3 100 8 0.215792
6 3 100 8 0.215792
7 3 100 8 0.431584
1 4 100 8 1
1 5 100 8 0.552616
2 5 100 8 0.223687
3 5 100 8 0.0745625
4 5 100 8 9.86746e-06
7 5 100 8 0.0745622
8 5 100 8 0.0745625
1 6 100 8 0.491529
2 6 100 8 0.000103666
3 6 100 8 0.000293951
4 6 100 8 0.499701
5 6 100 8 0.00837225
1 7 100 8 9.86761e-05
2 7 100 8 0.705877
4 7 100 8 0.0510828
5 7 100 8 0.242941
2 8 100 8 0.00804366
3 8 100 8 0.000299415
4 8 100 8 0.991484
5 8 100 8 0.000163002
6 8 100 8 1.01944e-05
1 9 100 8 0.000337781
3 9 100 8 0.389324
4 9 100 8 0.31832
5 9 100 8 9.92946e-07
6 9 100 8 0.194675
8 9 100 8 0.0973418
1 10 100 8 0.00023014
2 10 100 8 0.00377309
3 10 100 8 0.929912
4 10 100 8 0.014521
5 10 100 8 0.0285097
6 10 100 8 8.46484e-06
7 10 100 8 0.0230458
1 11 100 8 0.000680968
2 11 100 8 0.151745
3 11 100 8 0.00529584
4 11 100 8 0.116399
5 11 100 8 0.00647629
6 11 100 8 0.00300255
8 11 100 8 0.716401
2 12 100 8 0.0653779
3 12 100 8 8.16332e-05
4 12 100 8 0.0946374
5 12 100 8 0.277748
6 12 100 8 0.18116
7 12 100 8 0.285913
8 12 100 8 0.095081
2 13 100 8 0.0183122
3 13 100 8 0.369773
4 13 100 8 0.00913752
5 13 100 8 0.134717
6 13 100 8 0.461741
7 13 100 8 0.00627563
8 13 100 8 4.28901e-05
1 14 100 8 0.000881919
2 14 100 8 1.66745e-05
3 14 100 8 0.00628414
4 14 100 8 0.000518849
5 14 100 8 0.0192628
6 14 100 8 0.920903
7 14 100 8 0.0511396
8 14 100 8 0.000993445
1 15 100 8 0.00582648
2 15 100 8 5.32905e-06
3 15 100 8 3.75576e-05
4 15 100 8 6.74721e-05
5 15 100 8 0.00480239
6 15 100 8 0.221362
7 15 100 8 0.050591
8 15 100 8 0.717308
1 16 100 8 1.56508e-06
2 16 100 8 0.000192979
3 16 100 8 3.92533e-05
4 16 100 8 0.00498156
5 16 100 8 0.000153828
6 16 100 8 0.000196401
7 16 100 8 0.334204
8 16 100 8 0.66023
2 17 100 8 0.00359234
3 17 100 8 4.75574e-06
5 17 100 8 0.281671
7 17 100 8 0.000224428
8 17 100 8 0.714508
1 18 100 8 0.000174329
2 18 100 8 0.000206401
3 18 100 8 0.000198775
4 18 100 8 0.42204
5 18 100 8 0.000549883
6 18 100 8 0.576828
8 18 100 8 3.2829e-06
3 19 100 8 5.67867e-07
4 19 100 8 0.00282471
7 19 100 8 0.492989
8 19 100 8 0.504185
2 20 100 8 0.173417
3 20 100 8 0.00393841
4 20 100 8 0.000179216
5 20 100 8 0.822428
6 20 100 8 1.39978e-05
7 20 100 8 2.08977e-05
8 20 100 8 3.14643e-06
3 21 100 8 4.83669e-06
4 21 100 8 3.97057e-06
5 21 100 8 8.36494e-05
6 21 100 8 0.0142095
7 21 100 8 0.985691
8 21 100 8 6.64642e-06
5 22 100 8 1.93026e-06
6 22 100 8 6.58484e-06
7 22 100 8 1.01789e-05
8 22 100 8 0.999981
2 0 100 9 0.178856
3 0 100 9 0.524828
4 0 100 9 0.0825921
5 0 100 9 0.0392555
6 0 100 9 0.0891704
8 0 100 9 0.0852978
1 1 100 9 1
2 2 100 9 0.62196
3 2 100 9 0.125707
5 2 100 9 0.126018
6 2 100 9 0.000298167
8 2 100 9 0.126018
2 3 100 9 0.088814
4 3 100 9 0.293079
5 3 100 9 0.00052474
6 3 100 9 9.31676e-05
7 3 100 9 0.324193
8 3 100 9 0.293296
1 4 100 9 0.458193
2 4 100 9 0.00043197
4 4 100 9 0.000893087
9 4 100 9 0.540482
1 5 100 9 0.642306
2 5 100 9 0.214423
3 5 100 9 4.56509e-06
4 5 100 9 0.143189
8 5 100 9 9.59212e-07
9 5 100 9 7.67309e-05
1 6 100 9 0.427485
2 6 100 9 0.212581
3 6 100 9 0.214755
4 6 100 9 0.145177
6 6 100 9 2.37818e-06
1 7 100 9 0.00341076
2 7 100 9 0.799853
4 7 100 9 4.10058e-05
6 7 100 9 0.196684
8 7 100 9 1.12539e-05
2 8 100 9 0.184238
3 8 100 9 0.329752
4 8 100 9 0.123687
5 8 100 9 0.362296
8 8 100 9 2.66031e-05
1 9 100 9 0.00051045
2 9 100 9 3.64459e-06
3 9 100 9 0.281961
4 9 100 9 0.0151136
5 9 100 9 0.140463
6 9 100 9 0.140506
7 9 100 9 0.140463
8 9 100 9 0.140516
9 9 100 9 0.140463
2 10 100 9 0.100692
3 10 100 9 0.425401
4 10 100 9 0.27206
5 10 100 9 0.100692
6 10 100 9 0.0004637
9 10 100 9 0.100692
1 11 100 9 0.00054318
2 11 100 9 0.0477441
3 11 100 9 0.0203261
4 11 100 9 0.00475029
5 11 100 9 0.458565
6 11 100 9 0.462899
7 11 100 9 0.000145995
8 11 100 9 0.00502636
2 12 100 9 0.000293547
3 12 100 9 0.0733211
4 12 100 9 0.418419
5 12 100 9 0.000348307
6 12 100 9 0.222939
7 12 100 9 0.277527
8 12 100 9 0.00714942
9 12 100 9 2.31847e-06
2 13 100 9 0.0210396
3 13 100 9 0.00951813
4 13 100 9 0.0497716
5 13 100 9 0.311125
6 13 100 9 0.0176038
7 13 100 9 0.395212
8 13 100 9 0.194798
9 13 100 9 0.000931816
2 14 100 9 0.000495436
3 14 100 9 0.000108685
4 14 100 9 0.193911
5 14 100 9 0.215675
6 14 100 9 0.158527
7 14 100 9 0.0812059
8 14 100 9 0.16511
9 14 100 9 0.184968
1 15 100 9 0.000243093
2 15 100 9 1.62234e-05
3 15 100 9 0.0482571
4 15 100 9 0.000197947
5 15 100 9 0.183606
6 15 100 9 0.0520849
7 15 100 9 0.109445
8 15 100 9 0.315107
9 15 100 9 0.291043
1 16 100 9 0.000139525
2 16 100 9 0.00145425
3 16 100 9 0.00159851
4 16 100 9 0.000428554
5 16 100 9 0.000226597
6 16 100 9 0.991492
7 16 100 9 0.00374628
8 16 100 9 0.000245521
9 16 100 9 0.000668418
2 17 100 9 1.36354e-05
3 17 100 9 0.00309302
4 17 100 9 0.00287415
5 17 100 9 0.000897123
6 17 100 9 0.576376
7 17 100 9 0.266498
8 17 100 9 0.00361463
9 17 100 9 0.146633
1 18 100 9 2.96153e-05
2 18 100 9 0.00043658
3 18 100 9 0.00169467
4 18 100 9 0.000992081
5 18 100 9 0.0251463
6 18 100 9 0.16654
7 18 100 9 0.483764
8 18 100 9 0.321396
2 19 100 9 0.00023834
3 19 100 9 0.00809845
4 19 100 9 0.531127
5 19 100 9 0.0578167
6 19 100 9 0.0195633
7 19 100 9 6.1084e-05
8 19 100 9 0.37885
9 19 100 9 0.00424429
3 20 100 9 1.14562e-05
4 20 100 9 4.64749e-05
5 20 100 9 0.245542
6 20 100 9 0.000267176
7 20 100 9 0.259199
8 20 100 9 4.98822e-05
9 20 100 9 0.494884
2 21 100 9 2.66385e-05
3 21 100 9 1.23966e-05
4 21 100 9 0.000921957
5 21 100 9 9.26339e-06
6 21 100 9 0.0237016
7 21 100 9 0.0286338
8 21 100 9 0.49314
9 21 100 9 0.453554
4 22 100 9 1.38039e-06
5 22 100 9 3.05191e-05
6 22 100 9 4.71562e-05
7 22 100 9 0.000785117
8 22 100 9 0.341897
9 22 100 9 0.657239
2 23 100 9 1.2321e-06
3 23 100 9 0.0031411
6 23 100 9 0.000250035
7 23 100 9 0.46966
8 23 100 9 0.000312754
9 23 100 9 0.526635
7 24 100 9 0.278016
8 24 100 9 0.714828
9 24 100 9 0.00715618
7 25 100 9 0.00252805
8 25 100 9 0.994637
9 25 100 9 0.00283541
3 26 100 9 0.00323193
4 26 100 9 8.15612e-06
6 26 100 9 2.19904e-05
7 26 100 9 3.9225e-05
8 26 100 9 0.000863554
9 26 100 9 0.995835
2 0 100 10 0.000244337
3 0 100 10 0.410803
4 0 100 10 0.109026
5 0 100 10 0.299108
7 0 100 10 0.0613104
8 0 100 10 0.119508
1 1 100 10 1
2 2 100 10 0.598605
6 2 100 10 7.28388e-06
7 2 100 10 0.133796
8 2 100 10 0.200694
9 2 100 10 0.0668979
2 3 100 10 3.46805e-05
6 3 100 10 3.22882e-05
8 3 100 10 0.691812
9 3 100 10 0.308121
1 4 100 10 1
1 5 100 10 0.928886
2 5 100 10 0.0710332
4 5 100 10 8.03596e-05
1 6 100 10 0.621346
2 6 100 10 0.000994895
3 6 100 10 1.13482e-05
4 6 100 10 0.372139
5 6 100 10 0.00548999
7 6 100 10 1.91765e-05
2 7 100 10 0.999903
3 7 100 10 1.73613e-05
4 7 100 10 4.29644e-05
5 7 100 10 1.89933e-05
8 7 100 10 1.72649e-05
2 8 100 10 0.262393
3 8 100 10 0.00797531
4 8 100 10 0.467494
5 8 100 10 0.262066
6 8 100 10 1.77492e-06
7 8 100 10 8.08687e-06
9 8 100 10 6.14123e-05
3 9 100 10 0.374477
4 9 100 10 0.28249
6 9 100 10 0.228664
7 9 100 10 3.08085e-05
8 9 100 10 5.39868e-06
10 9 100 10 0.114332
2 10 100 10 1.35954e-06
3 10 100 10 0.46853
4 10 100 10 0.33554
5 10 100 10 0.195925
7 10 100 10 4.10796e-06
3 11 100 10 0.00130644
4 11 100 10 0.116394
5 11 100 10 0.298087
6 11 100 10 0.292091
7 11 100 10 0.292121
1 12 100 10 2.52142e-07
2 12 100 10 0.0217012
3 12 100 10 0.00109255
4 12 100 10 0.138372
5 12 100 10 0.137011
6 12 100 10 0.343925
7 12 100 10 0.192547
8 12 100 10 0.165316
9 12 100 10 3.45708e-05
2 13 100 10 0.00021322
3 13 100 10 0.019146
4 13 100 10 0.0643072
5 13 100 10 0.0764052
6 13 100 10 0.134381
7 13 100 10 0.200681
8 13 100 10 0.135616
9 13 100 10 0.235506
10 13 100 10 0.133744
2 14 100 10 0.000579451
3 14 100 10 7.57444e-05
4 14 100 10 0.000834865
5 14 100 10 0.212628
6 14 100 10 0.274102
7 14 100 10 0.141276
8 14 100 10 0.0531828
9 14 100 10 0.247177
10 14 100 10 0.070144
2 15 100 10 4.24292e-05
3 15 100 10 0.00119036
4 15 100 10 0.0146155
5 15 100 10 4.00654e-06
6 15 100 10 0.0912171
7 15 100 10 0.125985
8 15 100 10 0.00444517
9 15 100 10 0.34858
10 15 100 10 0.413921
2 16 100 10 0.00902518
3 16 100 10 0.00158066
4 16 100 10 0.00319912
5 16 100 10 0.000327483
6 16 100 10 5.37671e-06
8 16 100 10 0.00468031
9 16 100 10 0.0462823
10 16 100 10 0.9349
2 17 100 10 0.0173817
3 17 100 10 0.00354453
4 17 100 10 3.77222e-06
7 17 100 10 0.434047
8 17 100 10 0.334713
9 17 100 10 0.209238
10 17 100 10 0.00107207
2 18 100 10 1.35113e-05
3 18 100 10 8.10871e-06
4 18 100 10 6.09168e-05
8 18 100 10 8.60214e-05
9 18 100 10 1.72141e-05
10 18 100 10 0.999814
10 19 100 10 1
3 20 100 10 1.87389e-06
4 20 100 10 4.91023e-05
8 20 100 10 0.999945
10 20 100 10 3.98784e-06
2 0 100 11 0.060541
3 0 100 11 0.289171
4 0 100 11 0.272208
5 0 100 11 0.0359919
6 0 100 11 2.39648e-06
7 0 100 11 0.0140713
8 0 100 11 8.74156e-06
9 0 100 11 0.136246
10 0 100 11 0.191759
11 0 100 11 6.8028e-07
1 1 100 11 1
2 2 100 11 0.688576
3 2 100 11 0.000714685
6 2 100 11 0.0772278
7 2 100 11 0.0763447
8 2 100 11 0.00312718
9 2 100 11 0.0770046
10 2 100 11 0.0770046
2 3 100 11 0.53791
6 3 100 11 0.00315028
7 3 100 11 0.0955222
8 3 100 11 0.0909057
9 3 100 11 0.0908371
10 3 100 11 0.0908371
11 3 100 11 0.0908371
1 4 100 11 4.90882e-05
2 4 100 11 0.106052
5 4 100 11 0.290574
9 4 100 11 0.000523024
10 4 100 11 0.301398
11 4 100 11 0.301404
1 5 100 11 0.574607
2 5 100 11 0.138572
3 5 100 11 9.66537e-07
4 5 100 11 0.0718021
5 5 100 11 0.0717432
6 5 100 11 0.0715306
7 5 100 11 0.0717432
1 6 100 11 0.848161
2 6 100 11 0.00243294
3 6 100 11 5.39475e-06
4 6 100 11 0.076763
7 6 100 11 7.21894e-05
8 6 100 11 0.0709827
11 6 100 11 0.00158235
1 7 100 11 0.00399478
2 7 100 11 0.695287
3 7 100 11 0.223328
4 7 100 11 0.0526344
5 7 100 11 0.000178646
7 7 100 11 0.0245413
8 7 100 11 4.7417e-06
10 7 100 11 3.17208e-05
2 8 100 11 0.10283
3 8 100 11 0.198569
4 8 100 11 0.0993749
5 8 100 11 0.397371
6 8 100 11 4.94755e-06
7 8 100 11 4.68864e-06
8 8 100 11 0.20184
9 8 100 11 3.37104e-06
10 8 100 11 2.31796e-06
1 9 100 11 1.10993e-05
3 9 100 11 0.00197687
4 9 100 11 0.325066
5 9 100 11 0.169581
6 9 100 11 0.333279
7 9 100 11 0.169919
8 9 100 11 5.36995e-06
9 9 100 11 1.60421e-05
10 9 100 11 1.80567e-05
11 9 100 11 0.000127142
2 10 100 11 2.57254e-06
3 10 100 11 0.528315
4 10 100 11 0.105803
5 10 100 11 0.105803
6 10 100 11 0.0529487
7 10 100 11 0.0528997
8 10 100 11 0.0484258
9 10 100 11 0.0529016
11 10 100 11 0.0529004
3 11 100 11 0.0158522
4 11 100 11 0.982482
5 11 100 11 8.57636e-05
7 11 100 11 5.81764e-05
8 11 100 11 0.000140755
9 11 100 11 0.000153351
10 11 100 11 0.00101946
11 11 100 11 0.000207883
2 12 100 11 4.18879e-05
4 12 100 11 0.103992
5 12 100 11 0.205914
6 12 100 11 0.250053
7 12 100 11 0.0767873
8 12 100 11 0.207255
9 12 100 11 0.103968
10 12 100 11 0.0519889
11 12 100 11 1.20792e-06
2 13 100 11 0.0805845
3 13 100 11 0.00273482
4 13 100 11 0.0605959
5 13 100 11 0.299843
6 13 100 11 0.308541
7 13 100 11 0.24704
8 13 100 11 0.000352195
9 13 100 11 0.000286858
10 13 100 11 1.20701e-05
11 13 100 11 9.88885e-06
1 14 100 11 1.33498e-06
2 14 100 11 9.36449e-05
3 14 100 11 0.0578045
4 14 100 11 0.00131424
5 14 100 11 0.252205
6 14 100 11 0.0788005
7 14 100 11 0.00848237
8 14 100 11 0.128022
9 14 100 11 0.394453
10 14 100 11 0.0785003
11 14 100 11 0.000323072
2 15 100 11 4.03923e-06
3 15 100 11 0.000208288
4 15 100 11 8.26833e-06
5 15 100 11 8.57428e-05
6 15 100 11 0.191565
7 15 100 11 0.0558307
8 15 100 11 0.163977
9 15 100 11 0.26192
10 15 100 11 0.163323
11 15 100 11 0.163078
1 16 100 11 0.00909163
2 16 100 11 0.00277063
3 16 100 11 0.000813386
4 16 100 11 0.00166232
5 16 100 11 0.00203926
6 16 100 11 0.307573
7 16 100 11 0.648817
8 16 100 11 0.0168988
9 16 100 11 0.000370055
10 16 100 11 0.00996378
1 17 100 11 0.0383922
2 17 100 11 0.000237067
3 17 100 11 0.0587129
4 17 100 11 0.052683
5 17 100 11 1.66309e-05
6 17 100 11 0.105699
7 17 100 11 0.263994
8 17 100 11 0.206375
9 17 100 11 0.157821
10 17 100 11 0.00102547
11 17 100 11 0.115042
1 18 100 11 8.61485e-06
2 18 100 11 0.00122346
3 18 100 11 0.000132495
4 18 100 11 0.00021592
5 18 100 11 3.12148e-05
6 18 100 11 2.33367e-05
7 18 100 11 0.000696897
8 18 100 11 0.378974
9 18 100 11 0.149326
10 18 100 11 0.129589
11 18 100 11 0.339779
1 19 100 11 0.00105543
2 19 100 11 0.000724236
3 19 100 11 0.000243283
4 19 100 11 1.4892e-05
5 19 100 11 9.05184e-05
6 19 100 11 5.96637e-06
7 19 100 11 0.31563
8 19 100 11 0.131342
9 19 100 11 0.113287
10 19 100 11 0.32184
11 19 100 11 0.115767
2 20 100 11 0.00683022
3 20 100 11 0.0571763
4 20 100 11 0.0645543
5 20 100 11 0.0645539
6 20 100 11 0.0645426
7 20 100 11 0.00619944
8 20 100 11 0.0672644
9 20 100 11 0.00118457
10 20 100 11 0.157399
11 20 100 11 0.510296
2 21 100 11 3.23621e-05
3 21 100 11 0.000126576
4 21 100 11 0.358953
6 21 100 11 1.39816e-06
7 21 100 11 0.000543785
8 21 100 11 0.000202774
9 21 100 11 0.0170967
10 21 100 11 0.622654
11 21 100 11 0.000388799
2 22 100 11 7.46398e-05
3 22 100 11 9.44499e-06
5 22 100 11 0.329539
6 22 100 11 1.00749e-06
7 22 100 11 0.00962342
9 22 100 11 0.00208738
11 22 100 11 0.658665
8 23 100 11 0.996581
9 23 100 11 1.39357e-05
10 23 100 11 0.00340521
10 24 100 11 0.203409
11 24 100 11 0.796591
9 25 100 11 3.73558e-06
10 25 100 11 0.987709
11 25 100 11 0.0122868
2 26 100 11 1.38161e-06
10 26 100 11 5.8468e-05
11 26 100 11 0.99994
4 0 100 12 0.174422
5 0 100 12 0.517781
9 0 100 12 1.45784e-05
10 0 100 12 0.233603
11 0 100 12 0.0741797
1 1 100 12 1
2 2 100 12 0.997968
8 2 100 12 0.00203226
2 3 100 12 0.999866
5 3 100 12 0.000107931
10 3 100 12 2.65465e-05
1 4 100 12 1
1 5 100 12 0.874968
2 5 100 12 0.125
12 5 100 12 3.20451e-05
1 6 100 12 0.934975
4 6 100 12 0.0603095
5 6 100 12 0.00471589
4 7 100 12 0.996663
5 7 100 12 0.00311903
11 7 100 12 0.000217693
4 8 100 12 0.999933
5 8 100 12 1.66995e-06
9 8 100 12 6.49183e-05
3 9 100 12 0.816908
4 9 100 12 0.180696
5 9 100 12 0.000472028
6 9 100 12 0.00173718
8 9 100 12 0.000147992
11 9 100 12 3.94679e-05
3 10 100 12 0.75466
4 10 100 12 0.129122
9 10 100 12 0.0581679
10 10 100 12 0.0580495
4 11 100 12 0.0589898
5 11 100 12 0.654035
6 11 100 12 0.276178
10 11 100 12 0.00502638
11 11 100 12 0.00577066
5 12 100 12 3.18617e-06
6 12 100 12 0.367432
7 12 100 12 0.52624
8 12 100 12 0.0535495
9 12 100 12 0.0527753
5 13 100 12 1.11099e-05
7 13 100 12 0.500261
10 13 100 12 0.166599
11 13 100 12 0.166592
12 13 100 12 0.166536
2 14 100 12 0.00676852
3 14 100 12 1.20172e-06
4 14 100 12 0.0035769
5 14 100 12 0.359269
6 14 100 12 0.000522172
7 14 100 12 1.90007e-05
8 14 100 12 3.17985e-07
9 14 100 12 0.000127793
10 14 100 12 0.623553
11 14 100 12 0.00492886
12 14 100 12 0.00123269
1 15 100 12 3.67941e-07
2 15 100 12 3.0531e-07
3 15 100 12 0.0081317
4 15 100 12 0.000119899
5 15 100 12 4.4891e-05
6 15 100 12 0.32058
7 15 100 12 0.0269415
8 15 100 12 0.025677
9 15 100 12 1.10363e-06
10 15 100 12 0.00023557
11 15 100 12 0.29695
12 15 100 12 0.321318
1 16 100 12 1.4438e-05
2 16 100 12 0.000400701
3 16 100 12 8.6284e-05
4 16 100 12 0.0681786
5 16 100 12 0.498714
6 16 100 12 0.0101188
7 16 100 12 1.89769e-05
8 16 100 12 0.017027
9 16 100 12 0.000975048
10 16 100 12 0.352197
11 16 100 12 0.0522686
3 17 100 12 0.017934
4 17 100 12 0.0179433
8 17 100 12 0.310118
9 17 100 12 0.592426
10 17 100 12 0.0615663
11 17 100 12 1.2614e-05
1 18 100 12 3.53057e-05
2 18 100 12 0.000186545
4 18 100 12 0.0707584
5 18 100 12 0.111014
7 18 100 12 0.000139301
8 18 100 12 0.0104033
10 18 100 12 0.801006
11 18 100 12 0.00645654
2 19 100 12 6.30598e-05
4 19 100 12 2.56173e-05
5 19 100 12 8.16288e-05
7 19 100 12 0.192285
8 19 100 12 0.80582
10 19 100 12 0.00133868
11 19 100 12 0.000386473
3 20 100 12 2.37099e-06
4 20 100 12 3.42091e-05
5 20 100 12 7.72527e-05
6 20 100 12 4.04605e-05
8 20 100 12 1.5157e-06
9 20 100 12 0.0108308
10 20 100 12 0.000467345
11 20 100 12 0.494938
12 20 100 12 0.493608
4 21 100 12 1.47926e-05
5 21 100 12 0.00717297
6 21 100 12 2.15001e-05
9 21 100 12 1.27819e-06
10 21 100 12 9.40169e-05
11 21 100 12 0.964452
12 21 100 12 0.0282432
4 22 100 12 4.36262e-06
5 22 100 12 1.80746e-06
6 22 100 12 0.0726846
7 22 100 12 1.93334e-05
9 22 100 12 3.709e-07
10 22 100 12 4.94045e-06
11 22 100 12 0.137385
12 22 100 12 0.7899
11 23 100 12 8.17884e-05
12 23 100 12 0.999918
2 0 100 16 0.000938714
3 0 100 16 0.90056
7 0 100 16 0.0708451
10 0 100 16 0.0270964
12 0 100 16 0.00041326
13 0 100 16 0.000146796
1 1 100 16 1
2 2 100 16 1
7 3 100 16 0.456447
10 3 100 16 0.543535
12 3 100 16 8.41629e-06
13 3 100 16 1.05435e-05
1 4 100 16 1
1 5 100 16 0.999507
4 5 100 16 0.000492785
4 6 100 16 1
2 7 100 16 0.0203016
5 7 100 16 0.979698
5 8 100 16 0.5
10 8 100 16 0.5
4 9 100 16 1
9 10 100 16 0.61356
11 10 100 16 0.38644
4 11 100 16 1
5 12 100 16 0.111113
6 12 100 16 0.222208
7 12 100 16 0.111113
8 12 100 16 0.333339
11 12 100 16 0.111113
13 12 100 16 0.111113
7 13 100 16 8.61643e-05
9 13 100 16 0.4995
10 13 100 16 8.64007e-05
12 13 100 16 0.249757
13 13 100 16 0.000820335
14 13 100 16 0.24975
10 14 100 16 2.22564e-05
12 14 100 16 0.667338
13 14 100 16 0.33264
13 15 100 16 0.148202
14 15 100 16 0.296405
15 15 100 16 0.296405
16 15 100 16 0.258988
4 16 100 16 0.000335308
6 16 100 16 0.000162682
10 16 100 16 0.999502
6 17 100 16 0.216323
7 17 100 16 0.216329
9 17 100 16 6.56442e-06
11 17 100 16 0.296403
15 17 100 16 0.216316
16 17 100 16 0.0546218
2 18 100 16 0.984752
3 18 100 16 0.0120346
4 18 100 16 0.000501614
5 18 100 16 0.000257863
6 18 100 16 0.000125263
7 18 100 16 1.09101e-05
10 18 100 16 0.000137868
15 18 100 16 0.00217934
4 19 100 16 0.00107226
12 19 100 16 0.0164423
15 19 100 16 0.982485
5 20 100 16 0.000248019
6 20 100 16 0.00843288
7 20 100 16 0.00011704
10 20 100 16 0.000342558
11 20 100 16 7.42792e-06
15 20 100 16 0.00747073
16 20 100 16 0.983381
