2 0.862278 0.137722 0 0 0 0 0 0 0 0 
3 0.645275 0.354725 0 0 0 0 0 0 0 0 
4 0.739531 0.252998 0.00747127 0 0 0 0 0 0 0 
5 0.918468 0.0815318 0 0 0 0 0 0 0 0 
6 0.0292078 0.912903 0.0556607 0.00222815 0 0 0 0 0 0 
7 0.925804 0.074196 0 0 0 0 0 0 0 0 
8 0.731619 0.265726 0.00265473 0 0 0 0 0 0 0 
9 0.545626 0.431602 0.0227726 0 0 0 0 0 0 0 
10 0.140483 0.604949 0.241762 0.0128067 0 0 0 0 0 0 
11 0.2487 0.736813 0.00753701 0.00695073 0 0 0 0 0 0 
12 0.372432 0.599444 0.0281239 0 0 0 0 0 0 0 
13 0 0 0.743518 0.177538 0.0789439 0 0 0 0 0 
14 0.117147 0.630247 0.210057 0.0425497 0 0 0 0 0 0 
15 0.689435 0.29753 0.0130353 0 0 0 0 0 0 0 
16 0.106402 0.725971 0.123682 0.0439448 0 0 0 0 0 0 
17 0.457484 0.521115 0.0177629 0.00363866 0 0 0 0 0 0 
18 0 0 1 0 0 0 0 0 0 0 
19 0.101196 0.776563 0.0978598 0.0243805 0 0 0 0 0 0 
20 0 0.714286 0.0798358 0.134371 0.0715074 0 0 0 0 0 
21 0.660022 0.316189 0.023789 0 0 0 0 0 0 0 
22 0 0.405948 0.527058 0 0 0 0.0669935 0 0 0 
23 0.248324 0.356517 0.326713 0.0684458 0 0 0 0 0 0 
24 0.823207 0.172007 0.00478577 0 0 0 0 0 0 0 
25 0.359396 0.340862 0.251346 0.048396 0 0 0 0 0 0 
26 0.260633 0.728793 0.00550747 0.00506688 0 0 0 0 0 0 
27 0 0 1 0 0 0 0 0 0 0 
28 0.248324 0.300468 0.368292 0.0829156 0 0 0 0 0 0 
29 0.801407 0.198593 0 0 0 0 0 0 0 0 
30 0.267545 0.719614 0.00681713 0.00602396 0 0 0 0 0 0 
31 0.667369 0.332631 0 0 0 0 0 0 0 0 
32 0.217872 0.769846 0.00638884 0.00589301 0 0 0 0 0 0 
33 0.150329 0.817372 0 0 0.0322997 0 0 0 0 0 
34 0.26231 0.708109 0.00816222 0.0214188 0 0 0 0 0 0 
35 0.6134 0.3866 0 0 0 0 0 0 0 0 
36 0.241427 0.360502 0.317637 0.0804337 0 0 0 0 0 0 
37 0.790809 0.19239 0.0168009 0 0 0 0 0 0 0 
38 0.241367 0.735387 0.00686051 0.0163855 0 0 0 0 0 0 
39 0 0.396112 0.55584 0 0 0 0.0480481 0 0 0 
40 0.22872 0.276696 0.392031 0.102554 0 0 0 0 0 0 
41 0 0.8 0.2 0 0 0 0 0 0 0 
42 0.669555 0.319903 0.0105421 0 0 0 0 0 0 0 
43 0.193275 0.783933 0 0 0.022792 0 0 0 0 0 
44 0 0 1 0 0 0 0 0 0 0 
45 0.844389 0.155611 0 0 0 0 0 0 0 0 
46 0 0.413125 0.533003 0 0 0 0.0538721 0 0 0 
47 0.756158 0.243842 0 0 0 0 0 0 0 0 
48 0 0.5 0 0 0.5 0 0 0 0 0 
49 0 0.428262 0.517866 0 0 0 0.0538721 0 0 0 
50 0 0 1 0 0 0 0 0 0 0 
