1 1 100 1 1
2 0 100 2 1
1 1 100 2 0.285714
2 1 100 2 0.714286
1 2 100 2 1
2 0 100 3 1
1 1 100 3 0.343879
2 1 100 3 0.449641
3 1 100 3 0.206481
1 2 100 3 0.390887
2 2 100 3 0.16323
3 2 100 3 0.445883
2 3 100 3 0.333344
3 3 100 3 0.666656
3 4 100 3 1
1 0 100 4 0.120827
2 0 100 4 0.871176
3 0 100 4 0.00799749
1 1 100 4 0.354637
2 1 100 4 0.332043
3 1 100 4 0.222251
4 1 100 4 0.0910687
1 2 100 4 0.0867003
2 2 100 4 0.26126
3 2 100 4 0.387831
4 2 100 4 0.264208
1 3 100 4 0.0456088
2 3 100 4 0.0691698
3 3 100 4 0.213988
4 3 100 4 0.671233
1 4 100 4 0.609043
2 4 100 4 0.0347317
3 4 100 4 0.194624
4 4 100 4 0.161601
1 5 100 4 0.0602404
2 5 100 4 0.19555
3 5 100 4 0.187613
4 5 100 4 0.556597
1 6 100 4 4.26269e-06
2 6 100 4 0.000587332
3 6 100 4 4.94452e-05
4 6 100 4 0.999359
4 7 100 4 1
1 0 100 5 0.0648821
2 0 100 5 0.523493
3 0 100 5 0.336075
4 0 100 5 0.0683952
5 0 100 5 0.00715527
1 1 100 5 0.331326
2 1 100 5 0.272073
3 1 100 5 0.208393
4 1 100 5 0.143673
5 1 100 5 0.0445346
1 2 100 5 0.129309
2 2 100 5 0.19529
3 2 100 5 0.269369
4 2 100 5 0.221034
5 2 100 5 0.184998
1 3 100 5 0.095059
2 3 100 5 0.116671
3 3 100 5 0.203355
4 3 100 5 0.23829
5 3 100 5 0.346624
1 4 100 5 0.332267
2 4 100 5 0.0949406
3 4 100 5 0.0950339
4 4 100 5 0.26467
5 4 100 5 0.213089
1 5 100 5 1.49478e-05
2 5 100 5 0.0865818
3 5 100 5 0.0499585
4 5 100 5 0.257372
5 5 100 5 0.606073
3 6 100 5 0.000280088
4 6 100 5 0.332515
5 6 100 5 0.667204
1 0 100 6 0.0603065
2 0 100 6 0.446763
3 0 100 6 0.313327
4 0 100 6 0.10365
5 0 100 6 0.070066
6 0 100 6 0.00588846
1 1 100 6 0.302196
2 1 100 6 0.249187
3 1 100 6 0.203758
4 1 100 6 0.14981
5 1 100 6 0.0690035
6 1 100 6 0.0260461
1 2 100 6 0.106798
2 2 100 6 0.137764
3 2 100 6 0.162376
4 2 100 6 0.240762
5 2 100 6 0.223616
6 2 100 6 0.128684
1 3 100 6 0.105364
2 3 100 6 0.0213774
3 3 100 6 0.118087
4 3 100 6 0.204834
5 3 100 6 0.231032
6 3 100 6 0.319304
1 4 100 6 0.188368
2 4 100 6 0.22822
3 4 100 6 0.127226
4 4 100 6 0.0943689
5 4 100 6 0.180458
6 4 100 6 0.181359
1 5 100 6 0.012962
2 5 100 6 0.027856
3 5 100 6 0.154414
4 5 100 6 0.0807024
5 5 100 6 0.245262
6 5 100 6 0.478804
1 6 100 6 4.69665e-05
2 6 100 6 0.0817429
3 6 100 6 0.0820594
4 6 100 6 0.185047
5 6 100 6 0.163509
6 6 100 6 0.487594
1 7 100 6 0.465366
2 7 100 6 0.0414604
3 7 100 6 0.0153972
6 7 100 6 0.477776
1 0 100 7 0.0344363
2 0 100 7 0.445416
3 0 100 7 0.117498
4 0 100 7 0.211376
5 0 100 7 0.115642
6 0 100 7 0.071294
7 0 100 7 0.00433765
1 1 100 7 0.301967
2 1 100 7 0.203477
3 1 100 7 0.239483
4 1 100 7 0.125988
5 1 100 7 0.0751084
6 1 100 7 0.0328643
7 1 100 7 0.0211121
1 2 100 7 0.106655
2 2 100 7 0.0986364
3 2 100 7 0.124917
4 2 100 7 0.165608
5 2 100 7 0.24333
6 2 100 7 0.169675
7 2 100 7 0.0911789
1 3 100 7 0.0788929
2 3 100 7 0.0447746
3 3 100 7 0.116123
4 3 100 7 0.17881
5 3 100 7 0.128234
6 3 100 7 0.184105
7 3 100 7 0.26906
1 4 100 7 0.206967
2 4 100 7 0.169504
3 4 100 7 0.0875913
4 4 100 7 0.0773705
5 4 100 7 0.144453
6 4 100 7 0.162088
7 4 100 7 0.152027
1 5 100 7 0.0205588
2 5 100 7 0.041072
3 5 100 7 0.0877467
4 5 100 7 0.0956843
5 5 100 7 0.11044
6 5 100 7 0.269768
7 5 100 7 0.37473
2 6 100 7 0.10914
3 6 100 7 0.211116
4 6 100 7 0.0665282
5 6 100 7 0.0555629
6 6 100 7 0.23024
7 6 100 7 0.327413
3 7 100 7 0.132853
7 7 100 7 0.867147
6 8 100 7 1
2 9 100 7 0.000284895
3 9 100 7 0.0168239
4 9 100 7 0.981614
5 9 100 7 0.00126518
6 9 100 7 1.73708e-06
7 9 100 7 1.02236e-05
1 0 100 8 0.00713602
2 0 100 8 0.512302
3 0 100 8 0.204264
4 0 100 8 0.0721887
5 0 100 8 0.160514
6 0 100 8 0.0229388
7 0 100 8 0.020657
1 1 100 8 0.267075
2 1 100 8 0.143469
3 1 100 8 0.136038
4 1 100 8 0.204755
5 1 100 8 0.138498
6 1 100 8 0.0753464
7 1 100 8 0.0229286
8 1 100 8 0.0118904
1 2 100 8 0.111363
2 2 100 8 0.111885
3 2 100 8 0.169677
4 2 100 8 0.113169
5 2 100 8 0.152903
6 2 100 8 0.136837
7 2 100 8 0.125644
8 2 100 8 0.0785217
1 3 100 8 0.0545814
2 3 100 8 0.0287604
3 3 100 8 0.0961097
4 3 100 8 0.131241
5 3 100 8 0.123135
6 3 100 8 0.162519
7 3 100 8 0.166265
8 3 100 8 0.237389
1 4 100 8 0.202855
2 4 100 8 0.159198
3 4 100 8 0.102519
4 4 100 8 0.0949518
5 4 100 8 0.0617387
6 4 100 8 0.143603
7 4 100 8 0.128659
8 4 100 8 0.106477
1 5 100 8 0.000505609
2 5 100 8 0.0242299
3 5 100 8 0.0492512
4 5 100 8 0.0813876
5 5 100 8 0.0828011
6 5 100 8 0.168194
7 5 100 8 0.275209
8 5 100 8 0.318422
1 6 100 8 1.10958e-05
3 6 100 8 0.0257091
4 6 100 8 0.0256382
5 6 100 8 0.130349
6 6 100 8 0.205619
7 6 100 8 0.278604
8 6 100 8 0.334069
4 7 100 8 4.34835e-05
7 7 100 8 0.399666
8 7 100 8 0.60029
1 0 100 9 0.0164588
2 0 100 9 0.368251
3 0 100 9 0.107084
4 0 100 9 0.111279
5 0 100 9 0.101972
6 0 100 9 0.196589
7 0 100 9 0.0614916
8 0 100 9 0.0368739
1 1 100 9 0.221672
2 1 100 9 0.107197
3 1 100 9 0.11652
4 1 100 9 0.154923
5 1 100 9 0.140069
6 1 100 9 0.107692
7 1 100 9 0.0949269
8 1 100 9 0.0522407
9 1 100 9 0.00475861
1 2 100 9 0.0632827
2 2 100 9 0.0836674
3 2 100 9 0.145077
4 2 100 9 0.0745738
5 2 100 9 0.123839
6 2 100 9 0.149422
7 2 100 9 0.152552
8 2 100 9 0.123483
9 2 100 9 0.0841035
1 3 100 9 0.102239
2 3 100 9 0.0242437
3 3 100 9 0.0801734
4 3 100 9 0.0900807
5 3 100 9 0.105831
6 3 100 9 0.0552043
7 3 100 9 0.144846
8 3 100 9 0.170406
9 3 100 9 0.226977
1 4 100 9 0.177108
2 4 100 9 0.17967
3 4 100 9 0.174284
4 4 100 9 0.143502
5 4 100 9 0.0352774
6 4 100 9 0.0419508
7 4 100 9 0.0589832
8 4 100 9 0.0796831
9 4 100 9 0.109543
1 5 100 9 9.2243e-05
2 5 100 9 0.0110882
3 5 100 9 0.017945
4 5 100 9 0.0853333
5 5 100 9 0.135779
6 5 100 9 0.138004
7 5 100 9 0.154599
8 5 100 9 0.187998
9 5 100 9 0.269161
2 6 100 9 6.81193e-06
3 6 100 9 0.0364474
4 6 100 9 0.0728937
5 6 100 9 0.109148
6 6 100 9 0.0995637
7 6 100 9 0.036451
8 6 100 9 0.281015
9 6 100 9 0.364474
8 7 100 9 0.49994
9 7 100 9 0.50006
1 0 100 10 0.0259958
2 0 100 10 0.396788
3 0 100 10 0.0986787
4 0 100 10 0.0950696
5 0 100 10 0.103181
6 0 100 10 0.125547
7 0 100 10 0.116392
8 0 100 10 0.0365839
9 0 100 10 0.00176382
1 1 100 10 0.265112
2 1 100 10 0.0996701
3 1 100 10 0.171548
4 1 100 10 0.159332
5 1 100 10 0.106386
6 1 100 10 0.0481002
7 1 100 10 0.0842021
8 1 100 10 0.0510701
9 1 100 10 0.0145182
10 1 100 10 6.1065e-05
1 2 100 10 0.0610831
2 2 100 10 0.046529
3 2 100 10 0.106933
4 2 100 10 0.0781264
5 2 100 10 0.128814
6 2 100 10 0.181465
7 2 100 10 0.140838
8 2 100 10 0.157352
9 2 100 10 0.075246
10 2 100 10 0.0236134
1 3 100 10 0.0496541
2 3 100 10 0.0205826
3 3 100 10 0.0736662
4 3 100 10 0.0766476
5 3 100 10 0.0714429
6 3 100 10 0.0497284
7 3 100 10 0.0740837
8 3 100 10 0.122353
9 3 100 10 0.199843
10 3 100 10 0.261999
1 4 100 10 0.174721
2 4 100 10 0.139388
3 4 100 10 0.104676
4 4 100 10 0.148706
5 4 100 10 0.123928
6 4 100 10 0.0831942
7 4 100 10 0.0954868
8 4 100 10 0.0433953
9 4 100 10 0.0451156
10 4 100 10 0.0413902
1 5 100 10 0.0202302
2 5 100 10 0.0470969
3 5 100 10 0.0203266
4 5 100 10 0.0690539
5 5 100 10 0.0314724
6 5 100 10 0.0925929
7 5 100 10 0.103521
8 5 100 10 0.154154
9 5 100 10 0.228715
10 5 100 10 0.232836
3 6 100 10 0.030665
4 6 100 10 0.0343787
5 6 100 10 0.137515
6 6 100 10 0.116154
8 6 100 10 0.102273
9 6 100 10 0.303541
10 6 100 10 0.275473
10 7 100 10 1
9 8 100 10 1
7 9 100 10 1
1 0 100 11 0.0151501
2 0 100 11 0.527889
3 0 100 11 0.113327
4 0 100 11 0.0480668
5 0 100 11 0.122554
6 0 100 11 0.00673247
7 0 100 11 0.0390843
8 0 100 11 0.0588649
9 0 100 11 0.0362999
10 0 100 11 0.0320313
11 0 100 11 1.21658e-06
1 1 100 11 0.203589
2 1 100 11 0.0858099
3 1 100 11 0.138241
4 1 100 11 0.13301
5 1 100 11 0.131208
6 1 100 11 0.133465
7 1 100 11 0.102536
8 1 100 11 0.062886
9 1 100 11 1.90838e-06
10 1 100 11 0.00887711
11 1 100 11 0.000375726
1 2 100 11 0.0792353
2 2 100 11 0.0573834
3 2 100 11 0.102626
4 2 100 11 0.0862549
5 2 100 11 0.12672
6 2 100 11 0.120895
7 2 100 11 0.112451
8 2 100 11 0.12271
9 2 100 11 0.0896887
10 2 100 11 0.0578653
11 2 100 11 0.0441703
1 3 100 11 0.00882702
2 3 100 11 0.00157339
3 3 100 11 0.0793623
4 3 100 11 0.0526303
5 3 100 11 0.0563045
6 3 100 11 0.104998
7 3 100 11 0.0984123
8 3 100 11 0.114536
9 3 100 11 0.158823
10 3 100 11 0.15708
11 3 100 11 0.167453
1 4 100 11 0.227731
2 4 100 11 0.0416327
3 4 100 11 0.106197
4 4 100 11 0.194212
5 4 100 11 0.0354662
6 4 100 11 0.0310693
7 4 100 11 0.0568937
8 4 100 11 0.0571389
9 4 100 11 0.103242
10 4 100 11 0.0687909
11 4 100 11 0.0776265
1 5 100 11 2.07592e-05
2 5 100 11 6.37643e-06
3 5 100 11 8.84007e-05
4 5 100 11 0.0374056
5 5 100 11 0.0647272
6 5 100 11 0.079559
7 5 100 11 0.10706
8 5 100 11 0.118983
9 5 100 11 0.13558
10 5 100 11 0.214611
11 5 100 11 0.241958
3 6 100 11 0.0154565
4 6 100 11 0.000453222
5 6 100 11 0.0546266
6 6 100 11 0.147497
7 6 100 11 0.0983363
8 6 100 11 0.0491658
9 6 100 11 0.192434
10 6 100 11 0.19667
11 6 100 11 0.24536
4 7 100 11 0.000263632
10 7 100 11 0.499868
11 7 100 11 0.499868
1 0 100 12 0.00599072
2 0 100 12 0.414296
3 0 100 12 0.0616071
4 0 100 12 0.0422578
5 0 100 12 0.125829
6 0 100 12 0.0512235
7 0 100 12 0.102903
8 0 100 12 0.096315
9 0 100 12 0.0557689
10 0 100 12 0.00172663
11 0 100 12 0.0420832
1 1 100 12 0.217748
2 1 100 12 0.0542976
3 1 100 12 0.110603
4 1 100 12 0.118746
5 1 100 12 0.12097
6 1 100 12 0.104125
7 1 100 12 0.0923785
8 1 100 12 0.0925456
9 1 100 12 0.0873393
10 1 100 12 4.96168e-07
11 1 100 12 2.77303e-06
12 1 100 12 0.00124401
1 2 100 12 0.0561879
2 2 100 12 0.0478878
3 2 100 12 0.10237
4 2 100 12 0.0642377
5 2 100 12 0.0740473
6 2 100 12 0.110533
7 2 100 12 0.0647398
8 2 100 12 0.0814837
9 2 100 12 0.140028
10 2 100 12 0.119193
11 2 100 12 0.0754238
12 2 100 12 0.0638684
1 3 100 12 0.0244249
2 3 100 12 0.000676052
3 3 100 12 0.0528427
4 3 100 12 0.0659724
5 3 100 12 0.0635194
6 3 100 12 0.040269
7 3 100 12 0.0922736
8 3 100 12 0.110352
9 3 100 12 0.0769406
10 3 100 12 0.141888
11 3 100 12 0.159967
12 3 100 12 0.170874
1 4 100 12 0.15059
2 4 100 12 0.107103
3 4 100 12 0.125454
4 4 100 12 0.168896
5 4 100 12 0.0673564
6 4 100 12 0.0639948
7 4 100 12 0.0427444
8 4 100 12 0.0212697
9 4 100 12 0.0192096
10 4 100 12 0.105242
11 4 100 12 0.0430886
12 4 100 12 0.0850511
1 5 100 12 0.0707506
2 5 100 12 0.00185127
3 5 100 12 0.0681887
4 5 100 12 0.0734589
5 5 100 12 0.0491568
6 5 100 12 0.121501
7 5 100 12 0.0979754
8 5 100 12 0.0949391
9 5 100 12 0.0770849
10 5 100 12 0.124702
11 5 100 12 0.122167
12 5 100 12 0.0982237
1 6 100 12 1.05413e-05
3 6 100 12 0.0428338
4 6 100 12 0.0435278
5 6 100 12 0.0888586
6 6 100 12 0.0882243
7 6 100 12 0.0887958
8 6 100 12 0.0782415
9 6 100 12 0.0887958
10 6 100 12 0.081752
11 6 100 12 0.176834
12 6 100 12 0.222126
4 7 100 12 1.75501e-05
7 7 100 12 0.332542
11 7 100 12 0.332542
12 7 100 12 0.334897
6 8 100 12 0.99999
12 8 100 12 1.0332e-05
4 9 100 12 0.00916733
9 9 100 12 0.224481
10 9 100 12 0.256301
11 9 100 12 0.256326
12 9 100 12 0.253724
1 0 100 13 0.000416558
2 0 100 13 0.547899
3 0 100 13 0.0887159
4 0 100 13 7.63273e-05
5 0 100 13 0.1581
6 0 100 13 9.19248e-05
7 0 100 13 0.00186754
8 0 100 13 0.122503
9 0 100 13 0.0317281
10 0 100 13 0.000203234
11 0 100 13 0.00159876
12 0 100 13 0.0467987
13 0 100 13 8.00337e-07
1 1 100 13 0.159053
2 1 100 13 0.000652343
3 1 100 13 0.106155
4 1 100 13 0.135479
5 1 100 13 0.114976
6 1 100 13 0.108383
7 1 100 13 0.18967
8 1 100 13 0.0775716
9 1 100 13 0.0542145
10 1 100 13 0.0272734
11 1 100 13 0.0265586
12 1 100 13 1.37702e-05
1 2 100 13 0.0759142
2 2 100 13 0.0366649
3 2 100 13 0.0718652
4 2 100 13 0.071556
5 2 100 13 0.00243164
6 2 100 13 0.071536
7 2 100 13 0.0701762
8 2 100 13 0.077646
9 2 100 13 0.154339
10 2 100 13 0.21438
11 2 100 13 0.0462844
12 2 100 13 3.26571e-05
13 2 100 13 0.107174
2 3 100 13 8.6956e-07
3 3 100 13 0.0879127
5 3 100 13 0.0587908
6 3 100 13 0.058747
7 3 100 13 0.00112287
8 3 100 13 0.0676432
9 3 100 13 0.117611
10 3 100 13 0.0586706
11 3 100 13 0.16772
12 3 100 13 0.234656
13 3 100 13 0.147125
1 4 100 13 0.217966
2 4 100 13 0.0455522
3 4 100 13 0.0435145
4 4 100 13 0.189307
5 4 100 13 0.0232769
6 4 100 13 0.0436117
7 4 100 13 0.0436116
8 4 100 13 0.125523
9 4 100 13 0.0433881
10 4 100 13 0.130835
11 4 100 13 0.00477345
12 4 100 13 0.0450259
13 4 100 13 0.0436143
1 5 100 13 0.0363877
2 5 100 13 0.000170074
3 5 100 13 0.0784835
4 5 100 13 0.096616
5 5 100 13 0.135279
6 5 100 13 0.145463
7 5 100 13 0.107615
8 5 100 13 0.00470166
9 5 100 13 1.98901e-06
11 5 100 13 0.177052
12 5 100 13 0.0727763
13 5 100 13 0.145454
5 6 100 13 0.000133519
6 6 100 13 0.111424
7 6 100 13 0.111424
8 6 100 13 0.11111
9 6 100 13 0.222847
10 6 100 13 0.222847
11 6 100 13 0.112399
12 6 100 13 0.107815
4 7 100 13 0.000120838
12 7 100 13 0.49994
13 7 100 13 0.49994
1 0 100 14 7.78057e-06
2 0 100 14 0.635624
3 0 100 14 0.112896
4 0 100 14 0.106476
5 0 100 14 0.0187998
6 0 100 14 0.000208376
7 0 100 14 0.106671
8 0 100 14 0.0133309
10 0 100 14 0.000954513
11 0 100 14 5.47164e-05
12 0 100 14 0.00497762
1 1 100 14 0.108862
2 1 100 14 0.00178432
3 1 100 14 0.153551
4 1 100 14 0.156317
5 1 100 14 0.147573
6 1 100 14 0.155565
7 1 100 14 0.0520617
8 1 100 14 0.0520559
9 1 100 14 0.0688098
10 1 100 14 0.0523267
11 1 100 14 0.051085
12 1 100 14 6.38032e-07
13 1 100 14 5.29368e-07
14 1 100 14 7.39273e-06
1 2 100 14 0.00294245
3 2 100 14 0.000281452
4 2 100 14 5.69944e-05
5 2 100 14 0.122648
6 2 100 14 0.0919035
7 2 100 14 0.0619204
8 2 100 14 0.121796
9 2 100 14 0.0608985
10 2 100 14 0.243227
11 2 100 14 0.171776
12 2 100 14 0.0616598
14 2 100 14 0.0608898
1 3 100 14 0.067462
2 3 100 14 9.10271e-06
3 3 100 14 0.0674791
7 3 100 14 7.08924e-07
8 3 100 14 0.0590549
9 3 100 14 0.135709
10 3 100 14 1.67045e-05
11 3 100 14 0.0674532
12 3 100 14 0.266063
13 3 100 14 0.202453
14 3 100 14 0.134299
1 4 100 14 0.298262
2 4 100 14 0.0778494
3 4 100 14 0.0754869
4 4 100 14 0.231425
5 4 100 14 0.0752883
6 4 100 14 0.0772566
7 4 100 14 0.00942953
9 4 100 14 0.000445098
12 4 100 14 4.6184e-05
13 4 100 14 0.0772567
14 4 100 14 0.0772543
1 5 100 14 1.94751e-06
3 5 100 14 0.00151932
4 5 100 14 0.000374967
5 5 100 14 4.82013e-05
6 5 100 14 0.0729915
7 5 100 14 0.271452
8 5 100 14 0.14585
9 5 100 14 0.185299
10 5 100 14 0.000129797
11 5 100 14 0.0288681
12 5 100 14 0.146125
13 5 100 14 0.145875
14 5 100 14 0.0014649
1 6 100 14 1.1158e-06
7 6 100 14 0.10365
8 6 100 14 0.10365
9 6 100 14 0.0738915
10 6 100 14 0.102687
11 6 100 14 0.10365
12 6 100 14 0.103231
13 6 100 14 0.201937
14 6 100 14 0.207301
14 7 100 14 1
11 8 100 14 0.00192241
13 8 100 14 0.998078
3 9 100 14 0.130242
5 9 100 14 0.130242
6 9 100 14 0.130242
7 9 100 14 0.130242
8 9 100 14 0.130242
9 9 100 14 0.0883206
10 9 100 14 0.130242
11 9 100 14 0.130229
2 0 100 15 0.863989
3 0 100 15 0.00249175
10 0 100 15 0.133519
1 1 100 15 0.171157
2 1 100 15 2.28881e-06
3 1 100 15 0.170663
4 1 100 15 0.171157
10 1 100 15 0.144707
11 1 100 15 0.171157
12 1 100 15 0.171157
5 2 100 15 0.125
6 2 100 15 0.125
7 2 100 15 0.125
8 2 100 15 0.125
9 2 100 15 0.125
13 2 100 15 0.125
14 2 100 15 0.125
15 2 100 15 0.125
2 0 100 16 0.877205
3 0 100 16 0.00346199
9 0 100 16 0.000891094
10 0 100 16 0.118442
1 1 100 16 6.45767e-05
9 1 100 16 0.999935
1 2 100 16 0.130523
3 2 100 16 0.000668998
4 2 100 16 0.148469
5 2 100 16 0.150983
6 2 100 16 0.118048
11 2 100 16 0.149205
12 2 100 16 0.15112
13 2 100 16 0.150983
3 3 100 16 0.310705
6 3 100 16 0.0677862
7 3 100 16 0.310755
8 3 100 16 0.310755
1 4 100 16 0.288396
2 4 100 16 0.0109572
3 4 100 16 0.251339
4 4 100 16 0.258626
9 4 100 16 0.00051213
10 4 100 16 0.187173
11 4 100 16 0.00299588
1 5 100 16 0.000822035
12 5 100 16 0.499362
14 5 100 16 0.499816
10 6 100 16 9.93847e-05
15 6 100 16 0.49995
16 6 100 16 0.49995
1 7 100 16 5.989e-05
11 7 100 16 0.99994
10 8 100 16 1
5 9 100 16 0.125
6 9 100 16 0.125
7 9 100 16 0.125
8 9 100 16 0.125
13 9 100 16 0.125
14 9 100 16 0.125
15 9 100 16 0.125
16 9 100 16 0.125
