1 1 5 100 0.416667
3 1 5 100 5.19298e-06
5 1 5 100 0.583328
0 2 5 100 0.218558
2 2 5 100 0.25
4 2 5 100 0.0314419
5 2 5 100 0.5
0 3 5 100 0.228165
2 3 5 100 0.415883
3 3 5 100 0.25
4 3 5 100 0.0226188
5 3 5 100 0.0833333
0 4 5 100 0.0143979
2 4 5 100 0.235602
3 4 5 100 0.583333
5 4 5 100 0.166667
2 5 5 100 0.111111
3 5 5 100 0.777778
5 5 5 100 0.111111
0 6 5 100 0.200013
2 6 5 100 0.000579548
3 6 5 100 0.6
5 6 5 100 0.199407
0 7 5 100 0.00177919
2 7 5 100 0.198221
3 7 5 100 0.8
3 8 5 100 0.666667
5 8 5 100 0.333333
3 9 5 100 0.5
4 9 5 100 0.5
3 10 5 100 1
3 11 5 100 1
4 1 10 100 0.0021321
5 1 10 100 0.997868
0 2 10 100 0.499964
6 2 10 100 0.500036
2 3 10 100 0.5
10 3 10 100 0.5
8 4 10 100 0.0020142
9 4 10 100 0.997986
4 5 10 100 1.16665e-05
8 5 10 100 0.499988
10 5 10 100 0.5
3 6 10 100 0.0346807
9 6 10 100 0.965319
9 7 10 100 1
6 8 10 100 1
2 9 10 100 1
4 10 10 100 0.999977
8 10 10 100 2.33329e-05
4 11 10 100 1
1 1 11 100 0.5
4 1 11 100 1.89112e-05
5 1 11 100 0.499981
5 2 11 100 0.499998
6 2 11 100 0.000107251
7 2 11 100 0.499788
8 2 11 100 0.000107251
9 3 11 100 1
0 4 11 100 0.000212501
9 4 11 100 0.999788
2 5 11 100 1
2 6 11 100 1
3 7 11 100 0.500001
5 7 11 100 0.499999
11 8 11 100 1
1 1 12 100 0.0940968
4 1 12 100 0.570521
5 1 12 100 0.335332
7 1 12 100 5.01912e-05
0 2 12 100 0.000463052
2 2 12 100 0.163529
4 2 12 100 3.78008e-06
5 2 12 100 0.249996
6 2 12 100 4.40406e-05
7 2 12 100 0.416248
8 2 12 100 4.40406e-05
10 2 12 100 0.083201
12 2 12 100 0.0864714
0 3 12 100 0.159208
3 3 12 100 0.00404199
4 3 12 100 0.0833335
5 3 12 100 0.0817618
6 3 12 100 0.0849558
8 3 12 100 5.06862e-05
9 3 12 100 0.496606
10 3 12 100 0.0870363
11 3 12 100 0.00300587
0 4 12 100 0.0134377
2 4 12 100 0.166329
3 4 12 100 0.00352456
4 4 12 100 0.000137701
5 4 12 100 0.122263
6 4 12 100 0.0437248
7 4 12 100 5.22417e-06
8 4 12 100 0.249995
9 4 12 100 0.400582
12 4 12 100 1.13366e-06
2 5 12 100 0.44651
8 5 12 100 0.111111
9 5 12 100 0.222224
12 5 12 100 0.220156
9 6 12 100 0.285714
12 6 12 100 0.714286
2 7 12 100 0.166667
9 7 12 100 0.166667
10 7 12 100 0.355306
12 7 12 100 0.31136
9 8 12 100 0.5
12 8 12 100 0.5
9 9 12 100 1
1 1 13 100 0.134324
4 1 13 100 3.26508e-05
5 1 13 100 0.865643
0 2 13 100 0.00625298
2 2 13 100 0.000610992
5 2 13 100 0.125001
6 2 13 100 2.85317e-05
7 2 13 100 0.49883
8 2 13 100 2.16366e-06
11 2 13 100 0.000527087
12 2 13 100 0.368728
13 2 13 100 1.92275e-05
0 3 13 100 0.25159
2 3 13 100 0.375
5 3 13 100 3.99036e-05
6 3 13 100 0.121982
8 3 13 100 0.00299752
9 3 13 100 0.000481004
10 3 13 100 1.10139e-05
11 3 13 100 0.0125039
12 3 13 100 0.00130618
13 3 13 100 0.234087
2 4 13 100 0.25
5 4 13 100 0.000149347
6 4 13 100 0.18738
7 4 13 100 0.110721
8 4 13 100 0.0622375
9 4 13 100 2.16396e-06
10 4 13 100 0.251558
11 4 13 100 0.137951
2 5 13 100 0.125
7 5 13 100 0.124773
8 5 13 100 0.124999
9 5 13 100 0.250001
11 5 13 100 0.250227
13 5 13 100 0.125
2 6 13 100 0.5
8 6 13 100 2.25788e-06
11 6 13 100 0.166664
13 6 13 100 0.333333
2 7 13 100 0.2
9 7 13 100 0.4
11 7 13 100 0.2
13 7 13 100 0.2
2 8 13 100 0.5
9 8 13 100 0.5
2 9 13 100 1
9 10 13 100 1
1 1 14 100 9.17389e-06
4 1 14 100 0.100026
5 1 14 100 0.899965
0 2 14 100 0.000493319
2 2 14 100 0.763253
4 2 14 100 1.06087e-05
5 2 14 100 0.097712
6 2 14 100 0.00113856
7 2 14 100 0.0947585
8 2 14 100 0.00113856
10 2 14 100 1.37764e-05
11 2 14 100 0.0414821
0 3 14 100 0.3
9 3 14 100 0.500011
11 3 14 100 0.1
12 3 14 100 0.099989
0 4 14 100 0.0977209
5 4 14 100 0.000508161
6 4 14 100 0.0981747
7 4 14 100 6.82323e-06
8 4 14 100 0.0981747
9 4 14 100 0.499989
10 4 14 100 0.105385
11 4 14 100 2.62208e-05
12 4 14 100 1.39661e-05
13 4 14 100 0.1
0 5 14 100 0.341405
6 5 14 100 0.000184672
7 5 14 100 1.01536e-06
8 5 14 100 0.000184672
10 5 14 100 0.0315901
11 5 14 100 0.200013
12 5 14 100 0.00286586
13 5 14 100 0.323755
14 5 14 100 0.1
11 6 14 100 0.5
12 6 14 100 0.1
14 6 14 100 0.4
13 7 14 100 0.285714
14 7 14 100 0.714286
12 8 14 100 0.333333
13 8 14 100 0.666667
13 9 14 100 0.333333
14 9 14 100 0.666667
14 10 14 100 1
1 1 15 100 0.25
4 1 15 100 0.125017
5 1 15 100 0.499987
6 1 15 100 0.124996
0 2 15 100 0.124968
2 2 15 100 0.250622
3 2 15 100 8.39616e-06
5 2 15 100 0.249249
6 2 15 100 0.000402723
7 2 15 100 0.124358
8 2 15 100 0.125357
9 2 15 100 3.24337e-06
10 2 15 100 0.125002
11 2 15 100 3.24337e-06
12 2 15 100 2.48218e-05
14 2 15 100 1.77353e-06
0 3 15 100 0.228853
5 3 15 100 7.98386e-06
6 3 15 100 0.126251
7 3 15 100 3.79849e-06
8 3 15 100 0.0978349
9 3 15 100 0.521123
10 3 15 100 0.0233917
11 3 15 100 0.00134303
12 3 15 100 0.000662789
13 3 15 100 0.000498842
15 3 15 100 2.95413e-05
0 4 15 100 9.23946e-05
3 4 15 100 0.124908
6 4 15 100 0.0564396
8 4 15 100 0.0561193
9 4 15 100 0.25
10 4 15 100 0.252992
12 4 15 100 0.125
13 4 15 100 0.125
14 4 15 100 0.00944946
0 5 15 100 0.363507
3 5 15 100 5.86755e-05
6 5 15 100 3.14062e-05
8 5 15 100 0.125031
10 5 15 100 0.136359
12 5 15 100 7.54432e-06
13 5 15 100 0.125
14 5 15 100 0.250005
2 6 15 100 8.65664e-06
3 6 15 100 8.65664e-06
9 6 15 100 0.000167933
12 6 15 100 0.125
13 6 15 100 0.125
14 6 15 100 0.374983
15 6 15 100 0.374832
0 7 15 100 0.12497
6 7 15 100 7.7155e-06
8 7 15 100 7.7155e-06
9 7 15 100 3.36832e-05
10 7 15 100 1.42339e-06
11 7 15 100 1.12355e-05
12 7 15 100 0.249909
13 7 15 100 0.125091
14 7 15 100 0.125001
15 7 15 100 0.374966
0 8 15 100 0.12135
3 8 15 100 0.16436
7 8 15 100 3.77738e-06
9 8 15 100 2.60352e-05
12 8 15 100 0.210629
13 8 15 100 0.128643
14 8 15 100 1.11697e-05
15 8 15 100 0.374977
0 9 15 100 3.70212e-05
12 9 15 100 0.124963
13 9 15 100 0.25
15 9 15 100 0.625
13 10 15 100 0.5
15 10 15 100 0.5
13 11 15 100 1
5 12 15 100 0.000256361
13 12 15 100 0.999744
1 1 16 100 0.250191
4 1 16 100 0.000181179
5 1 16 100 0.749627
0 2 16 100 0.000498492
2 2 16 100 0.742394
4 2 16 100 1.57783e-05
5 2 16 100 0.249984
7 2 16 100 0.00710741
0 3 16 100 0.25
10 3 16 100 0.75
5 4 16 100 6.74029e-06
6 4 16 100 0.0650261
8 4 16 100 0.497238
9 4 16 100 0.095851
10 4 16 100 0.00277932
11 4 16 100 0.0901989
12 4 16 100 0.247688
14 4 16 100 0.00120393
15 4 16 100 7.38807e-06
0 5 16 100 0.492452
6 5 16 100 0.00424811
7 5 16 100 1.46501e-05
8 5 16 100 0.25
11 5 16 100 0.000178712
12 5 16 100 0.25
14 5 16 100 7.38622e-05
15 5 16 100 0.00303262
9 6 16 100 0.000136382
11 6 16 100 0.00452418
12 6 16 100 0.745792
15 6 16 100 0.249547
12 7 16 100 0.749207
13 7 16 100 0.000792735
16 7 16 100 0.25
13 8 16 100 0.333333
16 8 16 100 0.666667
15 9 16 100 1
16 10 16 100 1
1 1 17 100 0.171151
4 1 17 100 0.00870818
5 1 17 100 0.775179
6 1 17 100 0.00120401
9 1 17 100 0.00016478
10 1 17 100 0.04
11 1 17 100 0.000731578
12 1 17 100 0.000325989
14 1 17 100 0.000315667
15 1 17 100 0.00220218
16 1 17 100 1.77656e-05
0 2 17 100 0.0026461
2 2 17 100 0.559192
4 2 17 100 9.49527e-06
5 2 17 100 0.159992
6 2 17 100 0.0399976
7 2 17 100 0.196877
8 2 17 100 0.0102695
10 2 17 100 0.0284074
11 2 17 100 6.32816e-06
14 2 17 100 0.00132293
15 2 17 100 1.32957e-06
17 2 17 100 0.00127765
0 3 17 100 0.239624
3 3 17 100 0.00130146
6 3 17 100 5.30269e-06
7 3 17 100 9.27486e-07
8 3 17 100 0.042438
9 3 17 100 0.0740975
10 3 17 100 0.518553
11 3 17 100 0.000440503
12 3 17 100 0.08
13 3 17 100 0.00248365
14 3 17 100 0.00144659
16 3 17 100 0.0396055
17 3 17 100 2.8252e-06
0 4 17 100 0.103585
2 4 17 100 0.0400001
5 4 17 100 3.26586e-05
6 4 17 100 0.0584208
7 4 17 100 9.19946e-06
8 4 17 100 0.272009
9 4 17 100 0.061106
10 4 17 100 0.00801022
11 4 17 100 0.0568101
12 4 17 100 0.313636
13 4 17 100 0.0463652
16 4 17 100 1.3419e-05
17 4 17 100 0.040003
0 5 17 100 0.307667
2 5 17 100 0.0416667
3 5 17 100 7.40526e-05
4 5 17 100 0.00170806
6 5 17 100 0.00147109
7 5 17 100 0.0416957
8 5 17 100 0.0416667
10 5 17 100 0.124999
11 5 17 100 0.00095941
12 5 17 100 0.20631
13 5 17 100 0.153688
14 5 17 100 0.0361895
15 5 17 100 0.00494869
16 5 17 100 0.0369533
17 5 17 100 2.65108e-06
0 6 17 100 0.000103046
2 6 17 100 9.85863e-05
3 6 17 100 1.46732e-05
7 6 17 100 0.0412793
8 6 17 100 2.0751e-06
9 6 17 100 0.125006
10 6 17 100 0.0416636
11 6 17 100 0.0015528
12 6 17 100 0.456646
13 6 17 100 0.083667
14 6 17 100 0.0413043
15 6 17 100 0.0833334
16 6 17 100 0.000363921
17 6 17 100 0.124965
0 7 17 100 0.0268227
2 7 17 100 0.130435
3 7 17 100 0.0400237
6 7 17 100 5.98723e-07
8 7 17 100 5.98723e-07
10 7 17 100 1.41094e-06
11 7 17 100 0.000562687
12 7 17 100 0.217255
13 7 17 100 0.190807
14 7 17 100 0.0903074
15 7 17 100 0.172931
16 7 17 100 0.0438965
17 7 17 100 0.0869566
0 8 17 100 1.15317e-05
2 8 17 100 0.0952382
3 8 17 100 0.0484768
5 8 17 100 6.39071e-07
10 8 17 100 1.84623e-06
11 8 17 100 8.73441e-06
12 8 17 100 0.142855
13 8 17 100 9.77471e-05
14 8 17 100 0.0942712
15 8 17 100 0.237827
16 8 17 100 0.000258667
17 8 17 100 0.380953
3 9 17 100 0.0546858
4 9 17 100 7.21015e-07
5 9 17 100 5.65028e-05
8 9 17 100 2.47694e-05
10 9 17 100 0.0527446
12 9 17 100 0.0526315
13 9 17 100 0.103209
15 9 17 100 0.368359
17 9 17 100 0.368288
0 10 17 100 0.00601768
3 10 17 100 0.0606292
8 10 17 100 0.0666667
13 10 17 100 2.30633e-05
14 10 17 100 0.466671
15 10 17 100 0.399993
10 11 17 100 0.0572557
12 11 17 100 0.0909091
15 11 17 100 0.727273
17 11 17 100 0.124562
0 12 17 100 0.000152964
3 12 17 100 1.56448e-06
13 12 17 100 0.111114
14 12 17 100 0.110953
15 12 17 100 0.777778
0 13 17 100 0.000244508
3 13 17 100 8.81954e-06
13 13 17 100 0.00164231
14 13 17 100 0.498104
15 13 17 100 0.5
15 14 17 100 1
15 15 17 100 1
15 16 17 100 0.873767
17 16 17 100 0.126233
1 1 18 100 0.126468
4 1 18 100 4.50607e-06
5 1 18 100 0.125524
6 1 18 100 0.596165
7 1 18 100 0.000163321
9 1 18 100 0.000163321
10 1 18 100 0.125
11 1 18 100 0.000163321
14 1 18 100 0.000171703
16 1 18 100 0.0261772
0 2 18 100 0.00016451
2 2 18 100 0.169695
3 2 18 100 0.218671
5 2 18 100 0.116444
6 2 18 100 0.129257
7 2 18 100 4.33727e-06
8 2 18 100 0.129258
9 2 18 100 4.33727e-06
10 2 18 100 0.00736205
11 2 18 100 0.111418
12 2 18 100 5.84617e-05
13 2 18 100 3.10807e-05
14 2 18 100 1.15403e-05
15 2 18 100 0.117608
16 2 18 100 1.40606e-05
0 3 18 100 0.235231
7 3 18 100 2.81503e-06
9 3 18 100 0.139554
10 3 18 100 0.25
12 3 18 100 0.0466997
13 3 18 100 0.00021183
15 3 18 100 0.0563439
16 3 18 100 0.0216454
17 3 18 100 0.125311
18 3 18 100 0.125
0 4 18 100 0.205111
6 4 18 100 1.17151e-05
7 4 18 100 0.00366908
8 4 18 100 7.12916e-06
9 4 18 100 0.126548
10 4 18 100 0.125
11 4 18 100 0.157504
14 4 18 100 0.00713322
16 4 18 100 0.00965608
17 4 18 100 0.240359
18 4 18 100 0.125
0 5 18 100 0.0968103
6 5 18 100 4.13905e-05
8 5 18 100 4.13905e-05
9 5 18 100 0.125
10 5 18 100 0.12517
13 5 18 100 0.375013
14 5 18 100 0.152921
16 5 18 100 2.81329e-06
18 5 18 100 0.125
2 6 18 100 5.66106e-06
3 6 18 100 5.66106e-06
9 6 18 100 0.142857
12 6 18 100 0.142533
13 6 18 100 0.428571
14 6 18 100 0.142846
15 6 18 100 0.139173
17 6 18 100 0.000323691
18 6 18 100 0.0036845
2 7 18 100 1.58818e-05
3 7 18 100 0.142857
12 7 18 100 0.24904
13 7 18 100 0.285714
15 7 18 100 0.0367457
17 7 18 100 0.285627
0 8 18 100 0.162995
2 8 18 100 0.00596898
3 8 18 100 7.19581e-05
7 8 18 100 3.73252e-06
8 8 18 100 0.166659
9 8 18 100 3.3498e-06
12 8 18 100 0.160074
13 8 18 100 0.00366512
14 8 18 100 0.166634
15 8 18 100 0.166667
17 8 18 100 0.167226
18 8 18 100 3.26312e-05
0 9 18 100 0.199008
11 9 18 100 8.83347e-05
14 9 18 100 4.98494e-05
15 9 18 100 0.397503
16 9 18 100 0.00136652
17 9 18 100 0.199485
18 9 18 100 0.202499
0 10 18 100 0.388072
7 10 18 100 2.52349e-05
9 10 18 100 2.1514e-06
11 10 18 100 2.22656e-05
12 10 18 100 0.20002
14 10 18 100 0.00120771
16 10 18 100 0.0102826
17 10 18 100 0.000366656
18 10 18 100 0.400001
15 11 18 100 0.25
17 11 18 100 0.25
18 11 18 100 0.5
1 1 19 100 0.00919301
5 1 19 100 0.5
16 1 19 100 0.0030532
17 1 19 100 0.487754
0 2 19 100 0.00549054
2 2 19 100 0.5
7 2 19 100 0.476246
13 2 19 100 0.0172597
19 2 19 100 0.00100396
0 3 19 100 0.531
6 3 19 100 7.97625e-06
9 3 19 100 0.00120112
11 3 19 100 7.93548e-06
14 3 19 100 0.467188
18 3 19 100 0.000572536
19 3 19 100 2.2777e-05
10 4 19 100 0.499999
12 4 19 100 0.500001
3 5 19 100 5.92529e-06
4 5 19 100 0.461523
7 5 19 100 1.1774e-05
8 5 19 100 0.499994
12 5 19 100 0.000137551
16 5 19 100 0.0370154
19 5 19 100 0.00131252
2 6 19 100 0.500002
10 6 19 100 0.00230258
11 6 19 100 0.00507127
12 6 19 100 0.492624
5 7 19 100 0.5
12 7 19 100 0.5
2 8 19 100 0.500001
8 8 19 100 0.0355638
9 8 19 100 5.40269e-06
10 8 19 100 0.457678
11 8 19 100 5.40269e-06
12 8 19 100 0.0063149
18 8 19 100 0.000431197
12 9 19 100 0.5
16 9 19 100 3.13577e-05
17 9 19 100 0.499969
2 10 19 100 1
0 11 19 100 1.88457e-05
6 11 19 100 0.0222921
9 11 19 100 0.000749746
11 11 19 100 0.00067038
17 11 19 100 0.828416
18 11 19 100 0.147853
1 1 20 100 0.0500983
4 1 20 100 1.50433e-05
5 1 20 100 0.498866
6 1 20 100 0.449794
7 1 20 100 0.000878734
9 1 20 100 0.000176775
11 1 20 100 0.00015698
18 1 20 100 1.35544e-05
0 2 20 100 0.000748244
2 2 20 100 0.43771
3 2 20 100 0.216878
4 2 20 100 3.22264e-05
5 2 20 100 1.08387e-05
6 2 20 100 0.0499892
7 2 20 100 0.103258
8 2 20 100 0.0500431
10 2 20 100 9.29132e-06
11 2 20 100 0.0316933
12 2 20 100 1.69047e-05
13 2 20 100 0.0502194
15 2 20 100 0.0244238
18 2 20 100 0.0349677
0 3 20 100 0.196231
5 3 20 100 6.73609e-07
6 3 20 100 4.39635e-06
7 3 20 100 0.0491255
8 3 20 100 0.0518234
9 3 20 100 0.0501795
10 3 20 100 0.501883
11 3 20 100 0.000437509
12 3 20 100 0.0499999
13 3 20 100 0.000309845
15 3 20 100 0.05
16 3 20 100 1.26499e-06
17 3 20 100 7.54524e-06
18 3 20 100 7.59624e-07
20 3 20 100 0.0499961
0 4 20 100 0.299802
5 4 20 100 7.4108e-05
6 4 20 100 0.0488509
7 4 20 100 0.0129656
8 4 20 100 0.190293
9 4 20 100 0.0535327
10 4 20 100 0.0115675
11 4 20 100 0.0881027
12 4 20 100 0.050022
13 4 20 100 0.0808165
14 4 20 100 0.0117716
15 4 20 100 0.000164805
16 4 20 100 4.66631e-05
17 4 20 100 0.0506059
18 4 20 100 0.000312794
19 4 20 100 0.0499476
20 4 20 100 0.0511242
0 5 20 100 0.198296
6 5 20 100 0.000870979
7 5 20 100 1.18203e-05
8 5 20 100 0.0500009
11 5 20 100 0.000690876
12 5 20 100 0.10012
13 5 20 100 0.15
14 5 20 100 0.250219
15 5 20 100 0.0997818
16 5 20 100 8.23498e-06
17 5 20 100 0.0491176
20 5 20 100 0.100883
8 6 20 100 1.03545e-06
10 6 20 100 0.05
12 6 20 100 0.290627
13 6 20 100 0.0593163
14 6 20 100 0.099999
15 6 20 100 0.2
16 6 20 100 0.1
17 6 20 100 0.100056
19 6 20 100 0.05
20 6 20 100 0.05
2 7 20 100 1.12576e-05
8 7 20 100 2.48402e-06
10 7 20 100 0.0526298
12 7 20 100 0.158343
13 7 20 100 0.25634
15 7 20 100 0.0526316
16 7 20 100 0.105263
17 7 20 100 0.164654
19 7 20 100 0.210124
0 8 20 100 0.0504483
2 8 20 100 0.000533309
3 8 20 100 1.50088e-05
7 8 20 100 4.08154e-06
9 8 20 100 4.08154e-06
11 8 20 100 0.00170293
12 8 20 100 0.159247
14 8 20 100 1.69681e-06
15 8 20 100 0.105269
16 8 20 100 5.0865e-05
17 8 20 100 0.362945
18 8 20 100 0.0528929
19 8 20 100 0.261513
20 8 20 100 0.00537367
0 9 20 100 0.0554592
4 9 20 100 9.64047e-05
8 9 20 100 2.60409e-05
9 9 20 100 5.25548e-06
10 9 20 100 0.0555556
13 9 20 100 0.0555556
14 9 20 100 0.333308
15 9 20 100 0.111111
17 9 20 100 0.221567
19 9 20 100 0.0555498
20 9 20 100 0.111767
0 10 20 100 0.290774
11 10 20 100 2.46234e-05
14 10 20 100 2.05392e-05
15 10 20 100 0.0666671
16 10 20 100 0.0680534
18 10 20 100 0.0024319
19 10 20 100 0.438694
20 10 20 100 0.133334
10 11 20 100 0.0833314
12 11 20 100 1.93638e-06
17 11 20 100 0.0833333
19 11 20 100 0.0833333
20 11 20 100 0.75
14 12 20 100 0.5
20 12 20 100 0.5
12 13 20 100 1
13 14 20 100 1
17 15 20 100 0.999965
20 15 20 100 3.46585e-05
17 16 20 100 3.52257e-05
20 16 20 100 0.999965
1 1 22 100 0.0723784
4 1 22 100 0.000166789
5 1 22 100 0.285614
6 1 22 100 0.640567
7 1 22 100 0.0012272
9 1 22 100 6.38138e-06
16 1 22 100 3.86581e-05
18 1 22 100 1.03413e-06
0 2 22 100 0.000846029
2 2 22 100 0.415162
3 2 22 100 0.348999
4 2 22 100 4.54125e-06
5 2 22 100 0.0714244
6 2 22 100 0.068569
7 2 22 100 0.00862561
8 2 22 100 0.0720682
9 2 22 100 0.000937534
11 2 22 100 0.000937534
13 2 22 100 0.0102298
16 2 22 100 4.62362e-05
19 2 22 100 4.29776e-05
20 2 22 100 0.00210714
0 3 22 100 0.142857
5 3 22 100 3.5301e-06
6 3 22 100 0.00387495
7 3 22 100 0.0697144
8 3 22 100 0.0714286
9 3 22 100 0.00447605
10 3 22 100 0.502936
11 3 22 100 0.00447605
15 3 22 100 0.000131279
16 3 22 100 8.31116e-05
17 3 22 100 0.138975
18 3 22 100 8.31116e-05
19 3 22 100 0.000815353
21 3 22 100 0.000318175
22 3 22 100 0.0598277
0 4 22 100 0.249066
6 4 22 100 0.00660166
7 4 22 100 0.0231977
8 4 22 100 0.0702972
9 4 22 100 0.0297906
10 4 22 100 0.142868
11 4 22 100 0.0493697
12 4 22 100 0.13097
13 4 22 100 0.0119172
14 4 22 100 0.13739
16 4 22 100 0.000390073
17 4 22 100 0.0714182
18 4 22 100 0.000298984
19 4 22 100 0.00112628
20 4 22 100 1.48644e-06
21 4 22 100 0.0752977
0 5 22 100 0.184049
7 5 22 100 4.12732e-05
8 5 22 100 8.64724e-07
9 5 22 100 4.12732e-05
11 5 22 100 0.00515726
12 5 22 100 0.142873
13 5 22 100 0.142871
14 5 22 100 0.158558
15 5 22 100 0.0746973
16 5 22 100 0.000203546
17 5 22 100 0.0712347
18 5 22 100 0.00228791
20 5 22 100 0.0714106
21 5 22 100 0.00698577
22 5 22 100 0.139589
12 6 22 100 0.0768667
13 6 22 100 0.153846
14 6 22 100 0.153846
15 6 22 100 0.307687
16 6 22 100 0.000329362
17 6 22 100 0.153496
18 6 22 100 0.0769231
19 6 22 100 5.63715e-05
21 6 22 100 2.04169e-05
22 6 22 100 0.0769287
6 7 22 100 8.47501e-05
7 7 22 100 0.00899728
9 7 22 100 0.000167189
11 7 22 100 1.56339e-05
12 7 22 100 0.331538
15 7 22 100 0.0574698
16 7 22 100 0.0746352
17 7 22 100 0.249395
18 7 22 100 0.083371
19 7 22 100 0.085129
21 7 22 100 0.0833334
22 7 22 100 0.0258635
2 8 22 100 0.0011573
3 8 22 100 3.4668e-06
8 8 22 100 0.0873456
9 8 22 100 2.89051e-05
11 8 22 100 4.02819e-05
12 8 22 100 0.0909487
14 8 22 100 0.0914535
18 8 22 100 0.182449
19 8 22 100 0.365973
21 8 22 100 0.0896917
22 8 22 100 0.0909093
8 9 22 100 3.39332e-06
10 9 22 100 0.199986
14 9 22 100 0.199997
15 9 22 100 1.41678e-06
17 9 22 100 0.400014
22 9 22 100 0.199999
0 10 22 100 0.352376
7 10 22 100 1.67231e-06
9 10 22 100 1.19653e-05
10 10 22 100 0.125
11 10 22 100 0.000418428
13 10 22 100 1.45013e-05
14 10 22 100 0.124241
16 10 22 100 0.020463
17 10 22 100 0.125001
18 10 22 100 0.00247071
20 10 22 100 0.00085623
21 10 22 100 0.249145
0 11 22 100 0.188377
7 11 22 100 6.03924e-06
9 11 22 100 6.03924e-06
11 11 22 100 9.73363e-05
13 11 22 100 9.39596e-06
14 11 22 100 0.0309679
15 11 22 100 0.125001
16 11 22 100 3.46758e-05
18 11 22 100 0.000105385
20 11 22 100 9.21867e-06
21 11 22 100 0.405385
22 11 22 100 0.250001
15 12 22 100 0.199703
22 12 22 100 0.800297
1 1 23 100 0.000326285
5 1 23 100 0.000269054
6 1 23 100 0.999405
0 2 23 100 0.000715463
2 2 23 100 0.506394
3 2 23 100 0.445702
8 2 23 100 0.0121512
13 2 23 100 0.0350371
0 3 23 100 0.493957
10 3 23 100 0.5
23 3 23 100 0.00604269
0 4 23 100 0.443996
7 4 23 100 0.0272977
8 4 23 100 3.85284e-05
9 4 23 100 0.0272977
11 4 23 100 0.000982346
14 4 23 100 0.500002
18 4 23 100 0.000385671
14 5 23 100 0.5
15 5 23 100 0.5
6 6 23 100 5.59249e-06
7 6 23 100 2.04841e-05
9 6 23 100 2.04841e-05
11 6 23 100 2.04841e-05
15 6 23 100 0.5
16 6 23 100 0.0586923
18 6 23 100 0.44124
12 7 23 100 0.498668
17 7 23 100 0.413433
19 7 23 100 0.00133188
20 7 23 100 0.0586923
21 7 23 100 0.0274878
22 7 23 100 0.000387397
2 8 23 100 0.00079375
12 8 23 100 0.00191797
19 8 23 100 0.497288
21 8 23 100 0.000644389
22 8 23 100 0.499356
17 9 23 100 0.5
23 9 23 100 0.5
0 10 23 100 0.937147
11 10 23 100 0.000137743
16 10 23 100 0.0601237
18 10 23 100 0.00259124
21 11 23 100 0.00175646
22 11 23 100 0.998244
23 12 23 100 1
1 1 26 100 0.000314404
5 1 26 100 0.999686
0 2 26 100 0.000405884
2 2 26 100 0.243394
6 2 26 100 3.19922e-05
7 2 26 100 0.505846
8 2 26 100 4.81917e-06
10 2 26 100 0.249995
13 2 26 100 4.02294e-05
18 2 26 100 3.22082e-05
22 2 26 100 0.000248907
0 3 26 100 0.735208
9 3 26 100 0.000742595
11 3 26 100 0.0106084
21 3 26 100 9.94356e-06
24 3 26 100 0.00107029
25 3 26 100 0.248933
26 3 26 100 0.00342811
10 4 26 100 0.75
26 4 26 100 0.25
8 5 26 100 0.75
15 5 26 100 1.59041e-05
16 5 26 100 0.249984
9 6 26 100 8.80364e-05
11 6 26 100 0.00188356
15 6 26 100 1.27392e-05
16 6 26 100 0.985185
17 6 26 100 0.00188356
19 6 26 100 0.00188356
21 6 26 100 0.00906316
12 7 26 100 0.487944
13 7 26 100 0.142809
20 7 26 100 0.166265
22 7 26 100 0.0359126
23 7 26 100 0.113272
24 7 26 100 0.0530493
25 7 26 100 0.000747647
20 8 26 100 0.467893
23 8 26 100 0.198773
24 8 26 100 0.0234029
25 8 26 100 0.30993
0 9 26 100 0.593706
11 9 26 100 1.76178e-05
17 9 26 100 0.0302528
18 9 26 100 4.38872e-05
19 9 26 100 0.0302528
21 9 26 100 0.0122929
22 9 26 100 9.79104e-05
26 9 26 100 0.333337
24 10 26 100 0.00128322
25 10 26 100 0.998717
26 11 26 100 1
