5 63 1.02567e-07
23 150 1.27074e-07
23 136 3.74147e-05
23 141 0.00111588
34 14 1.97234e-07
28 68 1.4312e-07
43 15 9.42468e-07
3 50 1.67185e-07
17 53 2.47552e-07
16 53 2.67503e-07
9 50 1.63921e-07
49 21 1.30178e-07
0 187 1.56432e-07
5 81 1.85469e-07
14 21 2.38676e-07
0 83 2.87872e-07
34 68 2.65199e-05
47 14 4.7566e-07
45 187 2.64083e-06
21 66 6.5685e-07
14 15 1.21308e-07
3 61 1.28489e-07
0 73 4.66316e-07
21 142 7.4795e-06
39 5 0.000171731
30 39 7.74504e-07
36 33 0.000154425
34 13 1.05462e-05
27 14 9.79521e-05
0 233 1.03442e-05
5 68 0.000115009
40 21 0.00262792
36 184 5.24849e-06
2 128 4.81012e-06
4 33 0.00617831
21 20 0.000116446
2 83 5.67875e-06
11 72 1.06643e-06
10 74 2.1346e-07
11 33 0.000168142
2 21 0.000198148
10 86 0.00344855
8 5 6.92275e-06
34 5 1.82187e-05
7 66 0.00607243
8 22 1.09141e-05
2 79 0.000662365
8 88 0.00568831
9 109 0.00397968
36 187 0.00320097
31 56 0.0210559
45 238 0.00611383
48 63 0.0537856
48 68 0.0535951
50 68 0.029386
49 217 0.013748
54 248 8.68414e-06
52 55 0.0386762
29 225 0.011461
29 5 0.0114431
50 247 0.0587718
49 246 0.00691891
53 80 1.24393e-06
35 83 0.0147352
44 213 0.0193178
55 15 0.00294461
55 178 0.126041
37 216 0.0256597
54 192 0.00701279
53 241 0.0737366
52 202 0.0386251
54 202 0.00701817
52 168 0.0386762
52 213 0.0386759
42 187 0.00645651
42 210 0.006459
45 33 2.06529e-05
53 178 0.228485
53 7 0.11673
27 196 0.0128138
32 84 2.17772e-06
34 229 0.0148009
43 218 0.00741173
45 236 0.00611382
39 177 0.0159467
33 108 0.00806246
32 108 5.51341e-06
37 167 0.00865386
37 49 0.00855323
51 33 0.153226
42 167 0.00645899
51 220 0.0769765
37 12 0.00855325
52 86 0.0393194
40 108 0.0282558
12 233 0.0146313
30 215 8.35955e-07
54 215 0.0139883
33 231 0.0161283
33 230 0.00806414
37 5 2.42359e-06
46 50 0.0623239
46 33 0.125104
46 15 3.83281e-06
46 7 0.12442
54 81 0.00705077
43 196 0.0074195
54 229 0.00701279
21 54 0.0115
45 73 0.0122277
45 228 0.00611383
52 196 0.0386762
33 227 0.00806414
7 57 0.00607243
31 225 0.0421118
54 25 0.00701279
43 37 0.0148257
17 108 0.0120508
31 223 0.0210551
52 29 1.08971e-06
21 86 5.54057e-05
27 179 0.0256277
44 46 0.0193179
33 213 0.0162844
44 81 0.0193179
32 196 0.0365924
44 21 0.000309535
50 220 0.029386
25 104 0.0668769
35 213 0.0145925
33 218 0.00806338
32 218 8.8267e-07
36 19 0.0171397
27 217 0.0386077
27 80 0.02586
34 44 0.0075219
46 158 0.0625544
46 162 0.0625506
17 67 0.0361526
30 33 0.0634307
37 14 0.00892612
35 204 0.0368303
49 137 0.145657
35 22 0.0515663
32 215 0.020119
35 201 0.0147403
44 84 0.0529624
27 214 0.051205
52 15 0.109263
41 27 0.0672548
52 142 0.00146984
47 108 0.00687836
32 14 0.0109541
32 187 0.0166858
32 210 0.0093675
24 44 0.206403
47 91 0.00680153
42 14 0.0315284
27 199 0.0128138
19 90 0.0170237
19 89 0.0340475
37 140 0.00841258
32 202 0.00937585
32 168 0.00937429
43 7 0.0307151
34 21 3.38457e-06
45 136 0.176526
47 29 0.00139546
41 220 0.00517345
29 14 0.045804
37 33 0.0156839
43 21 0.00779111
30 63 0.0197273
54 140 0.00749582
54 7 0.0628937
49 155 0.00692303
39 140 0.102833
27 25 0.0128138
38 140 2.76901e-07
43 33 0.0095375
7 117 0.00607242
54 33 0.108548
54 191 0.0771407
54 142 0.0111962
54 141 0.0675505
20 81 7.6377e-06
31 196 0.126335
37 7 0.0170249
40 94 0.0282559
7 78 0.00607243
29 20 0.0447324
30 214 1.09844e-05
50 189 0.0587117
33 187 0.0107373
54 21 0.187188
37 20 3.59404e-07
49 142 0.00973787
42 142 0.0248693
49 141 0.0781286
42 141 0.0711839
24 145 0.0294913
53 191 0.147473
31 37 0.189497
43 14 0.00488494
49 29 0.00404017
33 215 0.0149774
42 22 0.0322924
47 21 0.048939
47 44 0.135927
52 99 0.0386762
17 55 0.0361526
7 50 0.00568941
51 21 0.230926
47 204 0.0230279
51 158 0.153948
47 208 0.00680154
51 162 0.153953
27 108 0.0128138
16 54 0.40847
27 169 0.192118
41 163 0.031086
28 50 1.98872e-06
47 105 0.0680154
44 7 0.0192026
27 177 0.162846
40 140 0.0565118
30 188 0.0338183
47 7 0.0382517
43 142 0.0132955
34 84 0.0040647
37 84 0.139432
42 136 0.169762
20 72 0.0220888
31 187 0.0842236
50 164 0.138138
10 25 0.0444031
50 186 0.235088
50 39 0.0786965
44 39 0.0386334
45 68 0.00611383
50 185 0.058772
32 142 0.0406129
50 73 0.088158
44 73 0.0193179
50 91 0.088158
47 213 0.00680152
7 52 0.0183479
33 21 0.061949
35 14 1.85833e-07
30 183 0.000269373
30 67 0.0488376
54 15 0.118934
54 22 0.0271115
31 93 0.0421118
54 71 0.0561023
41 180 0.0362141
35 182 0.00445189
49 7 0.0353689
17 66 0.0361526
40 163 0.113024
47 209 0.00680154
23 27 1.53159e-07
34 142 0.0200237
47 15 0.0891122
41 12 0.00517345
32 178 0.0399465
24 107 0.000555004
32 20 0.027868
32 140 0.186149
32 7 0.0386775
42 7 0.0129155
49 177 0.11796
49 14 0.0616023
49 140 0.126611
32 21 0.0533253
43 136 0.202332
47 33 0.03984
47 176 0.0544123
47 142 3.48512e-05
47 141 0.0646046
37 29 0.0209291
28 29 2.94489e-05
45 142 2.8538e-05
24 60 0.0294913
48 142 0.0523004
46 173 0.250218
44 141 0.0375632
12 86 6.05395e-07
25 29 0.179544
45 155 0.0855907
45 140 0.0513597
34 140 0.122232
45 7 0.0117414
34 7 0.000509204
30 172 0.0140909
30 171 0.0140909
30 170 0.0479092
24 99 0.0294909
47 86 0.0238761
35 197 0.0146827
41 206 0.00517344
45 91 0.0244553
29 213 0.011461
45 14 0.0439873
47 212 0.00680154
27 166 0.0384415
38 158 0.0149129
4 99 0.00627512
51 15 0.230923
27 142 3.07168e-06
45 29 0.0418137
39 164 0.155388
34 49 0.00749076
39 163 1.468e-05
38 163 0.0660246
37 163 0.00302354
50 203 0.0553262
45 86 0.0579155
45 141 0.0672693
44 15 0.0571684
44 158 0.0386396
41 161 0.118989
41 66 0.0195713
43 140 0.0849219
42 140 0.129172
42 159 0.310032
48 17 0.0975805
49 136 0.124531
48 136 0.148746
39 158 0.261039
22 36 0.109671
41 157 0.263846
42 86 0.069353
20 42 0.00310298
47 73 0.00680151
41 156 0.227632
46 174 0.00018003
41 57 0.00517345
30 21 0.265014
20 21 0.0730732
31 136 0.0496785
31 142 0.117993
54 84 5.77903e-06
52 84 0.0764498
42 84 0.045617
47 201 0.0340029
34 86 0.0958131
28 14 0.00192631
16 224 0.0140847
40 153 0.452094
34 29 0.000208003
52 190 0.386762
36 152 0.314179
17 37 0.13276
7 37 0.0788408
40 54 0.0564823
31 20 0.0372573
45 146 0.0733659
29 21 0.00103232
40 136 0.0413747
47 67 0.0136017
37 149 0.0171065
27 21 0.000206477
37 136 0.25631
36 99 0.33764
47 145 0.153513
41 160 0.201764
35 15 0.116609
34 136 0.183267
34 141 0.141102
27 55 0.0500726
47 182 0.0141362
15 19 0.00614068
3 20 0.017061
24 64 0.0294913
2 17 0.147967
40 63 0.0282559
11 17 0.363391
5 19 0.376941
16 134 0.197185
7 133 0.000101152
6 133 0.0068732
10 16 0.026985
47 49 0.0203216
53 107 0.064899
24 61 0.0589826
53 211 0.0737366
6 135 0.00698981
29 177 0.00333933
2 13 0.0836746
6 130 0.00698981
24 59 0.0294913
6 12 0.0139767
0 14 0.00550749
10 12 0.0190034
15 129 0.00614069
4 128 0.00626652
20 66 0.00736337
2 10 0.0800371
35 144 0.456791
29 146 0.0458441
15 124 0.00614068
4 5 0.223607
10 7 0.0210733
15 37 0.00614067
4 6 0.439258
29 169 0.194912
43 68 0.0132606
50 158 0.000417623
38 250 1.34842e-05
31 234 0.0421118
9 4 0.00474068
14 121 0.00558069
44 162 0.0386369
49 166 0.0482098
29 55 0.0026068
25 50 0.0661016
2 2 0.197725
10 4 0.00633448
21 119 0.0115
24 42 0.0294913
29 165 0.343935
3 2 0.301131
35 20 0.0849453
16 39 0.352066
15 115 0.00614069
20 114 0.00736337
25 107 0.000936518
5 141 0.00550414
39 108 0.0163463
25 39 0.0664522
21 39 2.71775e-05
25 56 0.0668767
9 10 0.00758494
20 125 0.00736337
38 150 0.91145
6 43 0.0069898
11 111 0.00144419
8 17 0.000110043
19 132 0.0170237
20 63 0.00736336
8 26 0.0058677
29 155 0.137531
15 67 0.00614069
44 50 0.0385206
49 219 0.00691892
15 56 0.00614069
42 207 0.045213
15 59 0.0184221
21 107 0.0815005
49 86 0.0606731
35 29 0.000159984
19 88 7.31515e-07
55 187 0.114643
31 66 0.105305
25 12 0.0181736
4 66 0.0125502
10 52 0.0233749
55 68 0.126041
20 24 0.184084
39 151 0.416831
17 33 0.0726835
40 181 0.113024
13 7 0.142854
42 239 0.006459
7 5 0.333899
47 197 0.0272544
9 120 0.00397992
36 148 0.170459
9 101 5.56538e-07
44 27 0.0386533
55 142 8.45643e-05
26 96 0.499988
37 142 0.0630968
29 200 0.0114609
24 83 0.0883439
24 26 0.0569524
32 141 0.131064
35 136 3.0329e-06
20 97 0.0147267
33 143 0.411271
22 12 0.0617133
33 99 0.312104
32 99 0.0403026
40 233 0.000199703
21 88 0.0114994
12 141 0.0870069
30 22 0.0538402
16 38 0.0281693
30 15 0.000261862
53 8 0.0737366
6 92 0.00716102
0 86 0.00946419
24 15 0.14704
31 141 0.0727908
20 67 0.0294535
20 22 0.0213631
43 20 8.88364e-07
22 22 0.0631988
24 14 0.00246813
0 84 0.0293064
24 13 0.0278279
20 20 0.000322554
21 84 0.0426822
32 136 0.197022
21 43 0.655497
24 204 0.0280176
13 89 0.142854
43 66 0.327715
49 99 0.0837643
34 249 0.00740044
12 19 0.0592718
35 17 0.00493647
20 88 2.96601e-07
20 127 0.00736334
8 12 0.0058677
15 87 0.0245625
48 182 0.110504
35 145 0.165253
13 84 0.142854
18 86 0.37003
19 17 0.0167166
44 52 0.0386357
49 169 0.0138409
3 81 0.0338366
3 12 0.029353
15 85 0.0245628
36 147 0.153747
26 122 0.499988
15 7 0.0184418
6 14 0.00905696
48 81 0.106966
19 35 0.0534837
20 104 0.0294535
22 13 0.00556126
21 82 0.0115
11 61 0.0136765
11 60 0.00683831
47 64 0.0952216
29 183 0.0103655
10 81 0.0189968
15 12 0.0245528
14 103 0.0111614
15 34 0.0148062
41 240 0.00517345
44 174 0.193072
20 98 0.00736331
21 29 1.49923e-06
21 80 0.133441
21 15 7.01955e-06
6 102 0.00698981
27 7 0.00212224
15 123 0.00614067
4 8 0.0313755
3 77 8.21407e-05
8 83 0.00585736
25 70 0.0668767
8 126 0.0058677
6 52 0.0551987
4 52 0.00469321
25 113 0.133754
3 52 0.0103615
3 25 0.0761021
17 21 0.0659213
28 136 0.436812
36 166 0.00344982
2 3 0.038532
53 192 0.0737366
18 29 0.0121885
23 39 0.353722
50 167 0.0809667
23 75 0.0624787
7 4 3.77707e-07
48 96 0.107571
6 4 0.383935
17 50 0.0482068
27 29 2.89451e-06
17 20 0.0360561
23 138 0.234124
20 34 0.026825
8 42 0.0289756
14 69 0.0223228
19 13 0.0820434
45 165 0.213929
33 232 0.00806412
11 2 0.0389602
49 179 0.0345946
15 16 0.0245239
38 164 0.00408906
9 118 0.00397965
8 40 0.0353257
37 86 0.161941
2 52 0.0110455
14 52 0.0123252
0 22 0.000189092
18 12 0.0256553
3 13 0.0833454
21 68 0.0176408
17 22 0.0326319
52 96 0.116029
17 52 0.0610525
23 50 0.0232354
14 2 0.147914
20 50 0.0217132
34 182 0.172155
37 250 0.00854511
15 20 0.0168712
23 57 0.32491
29 193 0.011461
29 13 0.00795541
29 29 0.000850137
39 136 4.52283e-06
6 36 0.078738
2 36 0.0035144
9 11 0.819814
28 86 9.94433e-07
6 25 0.0349062
20 36 0.0294679
15 13 0.0326642
14 63 0.0167421
40 86 1.25314e-05
44 203 0.0988545
11 53 0.000106532
44 216 0.0386357
10 53 0.215276
10 34 0.142141
42 194 0.006459
8 13 0.0279368
8 32 0.00586816
43 108 0.0221486
14 62 0.00558065
31 7 0.00582771
31 252 0.0210559
9 22 0.0132723
35 68 0.0122438
20 5 0.0464938
8 7 0.0481095
18 142 0.000889313
49 50 3.45137e-06
20 4 0.029485
20 29 0.0432747
6 50 0.0615907
20 33 0.121091
54 187 0.00715215
6 20 1.66831e-06
55 221 0.630206
21 58 0.0115
6 88 0.000213683
12 136 0.0539479
20 71 0.0147267
8 3 0.0706068
43 86 0.0975799
8 120 0.00586734
34 205 0.0074004
17 36 0.120507
4 41 0.0252785
3 41 0.00837346
15 2 4.65163e-06
11 29 3.07074e-07
10 33 0.00175662
10 44 0.00633459
24 105 0.088474
25 63 0.0668769
45 99 0.084792
2 14 0.0163616
17 25 0.0120509
28 140 0.32836
4 24 0.106676
18 7 0.506824
3 24 9.86135e-07
17 7 0.0196078
18 14 0.0717606
0 50 0.021131
53 245 0.0737366
31 15 0.000657105
14 32 0.0111609
14 31 0.251131
9 81 0.0039795
11 74 0.00683807
15 15 0.0429319
11 73 0.00242501
14 34 0.0609852
22 2 0.065342
14 30 0.145098
14 29 0.00346585
29 238 0.011461
28 20 0.00285455
51 7 2.30635e-05
4 91 0.00627511
27 138 0.0161934
6 8 0.0139796
4 22 0.0501385
4 77 0.0187644
25 83 0.0668768
39 235 0.00817313
27 137 0.345309
4 21 1.35274e-05
20 73 5.98532e-07
49 184 0.0207459
15 21 0.0919255
20 112 0.00736337
19 34 0.323944
25 112 0.066876
46 80 0.0625545
2 41 2.81117e-05
27 140 8.56486e-06
2 42 0.0388657
34 204 0.0123242
5 7 0.449176
4 76 0.0062751
3 21 0.0715377
17 4 0.27799
24 201 0.0589827
54 178 0.158748
20 15 0.0582353
8 10 0.184789
7 79 0.00492747
20 7 0.107108
31 86 0.0209097
2 40 0.196684
2 34 0.0989094
29 195 0.011461
39 141 0.0166563
9 95 0.00795936
37 141 0.167248
4 50 0.0122637
40 57 0.0282103
18 39 0.0126279
53 14 0.073704
3 49 0.0169184
20 70 0.0368168
42 13 0.0128275
0 21 0.0552903
2 101 0.00702649
25 24 0.133752
10 17 0.0490501
30 140 0.120599
23 142 0.000352827
12 27 0.785117
3 42 0.00489641
19 2 0.38408
25 80 2.77234e-06
34 81 0.0961811
22 96 0.0632764
52 68 0.0386762
4 62 0.0125502
3 7 0.0703293
19 12 0.02054
5 29 0.0252578
43 168 0.0148182
9 5 0.00592267
11 26 5.16173e-06
7 9 0.522229
8 34 0.101694
29 80 0.0387178
15 33 0.157752
22 94 0.0632763
0 33 0.0266906
32 50 0.0364825
3 4 0.167564
44 222 0.0193179
43 141 0.119094
15 26 0.150895
22 93 0.0632763
15 65 0.0122814
46 21 0.250067
22 92 0.0617261
34 17 0.100022
10 88 0.00633422
34 67 1.4366e-06
14 13 0.138961
11 18 0.506036
32 86 0.0764398
41 140 0.00775164
48 175 0.268928
0 29 0.328728
15 108 0.00614069
13 28 0.571414
22 48 0.316382
19 42 0.034042
38 167 0.00348543
33 50 5.58956e-07
44 189 0.077311
10 26 0.072815
15 64 0.0245627
10 14 0.0168967
34 63 0.00740014
11 15 0.0481282
37 50 0.0249472
4 2 0.000152419
8 68 0.0117354
29 243 0.011461
35 81 6.76502e-05
0 13 0.0224354
14 7 0.00012681
28 142 0.00211138
33 15 0.00406817
42 198 0.006459
8 35 0.0871839
6 34 0.147996
44 96 0.0193179
15 50 0.000906425
28 7 1.93713e-05
3 34 0.100589
15 49 0.00614069
21 154 0.0115
10 15 0.000502794
45 169 0.00611399
2 5 0.0273655
11 21 1.57313e-05
4 20 2.58435e-06
14 116 0.0390648
15 47 0.00614065
10 111 0.0049967
2 100 0.00351349
33 196 0.00881136
22 81 0.126553
0 20 0.0582638
8 110 0.0117354
9 41 0.0914281
15 46 0.00614067
15 39 0.0122814
9 17 7.18808e-07
42 242 0.006459
20 12 0.0221079
15 45 0.0429848
0 7 0.0145104
14 51 0.128356
2 7 0.0446383
8 29 0.137416
3 56 0.00845918
4 17 0.00628271
43 202 0.014821
15 44 0.135095
32 251 0.00936757
10 21 0.00949607
47 65 0.00680154
11 16 0.0119418
15 53 0.0245577
45 237 0.00611383
0 15 0.147147
10 2 0.223953
10 83 0.00636242
33 244 0.00806414
9 34 0.00399015
37 174 0.0188045
6 13 0.0026608
34 20 1.34005e-07
10 91 0.00633448
44 185 0.0193179
28 141 0.22786
39 174 0.006572
37 168 0.0171065
3 5 1.34685e-06
8 79 0.00586769
24 65 0.0589827
55 5 1.5434e-05
30 139 0.315637
29 7 0.0306809
54 67 0.0608049
2 29 0.000459583
44 226 0.0579536
30 55 0.00243733
9 2 0.0293442
8 2 0.201722
33 5 0.0952622
10 13 0.0700219
7 2 0.0116511
32 5 0.0102247
6 2 0.148739
32 15 1.75594e-05
40 50 0.0516478
45 167 0.0182695
10 73 0.00408613
6 131 0.00698981
20 10 0.00604908
35 73 0.00736756
0 5 0.00957909
0 142 0.271723
19 53 0.017031
3 84 6.90524e-07
8 106 0.00586765
15 42 0.030704
2 84 0.0027581
3 15 3.30534e-05
4 23 0.0251005
20 52 0.00736327
28 12 2.41701e-07
5 14 0.142979
5 34 2.95278e-06
43 248 0.00740255
37 150 1.66419e-05
0 2 1.52647e-07
