39 68 6.01693e-07
10 94 0.0046293
10 10 2.49482e-07
44 99 0.0833324
50 117 0.499994
50 116 0.499994
47 115 0.10589
49 114 0.499994
10 47 0.0182846
28 71 0.077301
11 95 0.0741396
13 112 0.0338039
20 111 0.0462344
19 111 0.0680094
15 110 0.0351525
9 110 0.0122287
21 76 0.14236
25 106 0.04804
20 55 0.03983
13 105 0.011268
14 104 0.0203953
40 103 0.0371327
15 102 0.0472952
20 100 0.0913925
39 94 0.0589859
38 96 0.0375163
41 95 0.166665
16 34 0.0777216
24 72 0.988384
47 20 0.15287
13 94 0.00842355
40 93 0.0371327
40 92 0.0742639
48 27 0.199998
48 42 0.199998
20 42 0.0456962
11 113 0.0741396
43 27 5.07112e-06
47 88 0.741229
45 50 0.999988
46 20 0.333122
13 83 0.0225359
13 86 0.0225359
20 101 0.0913925
44 84 0.33333
24 13 0.00976316
44 43 0.166665
19 83 0.0342062
44 45 0.166665
42 28 0.749481
43 38 0.0866548
42 80 0.250508
13 9 0.360575
17 55 0.00774904
46 87 0.666866
24 2 0.00180546
15 3 4.48961e-06
38 69 0.140083
41 67 0.833324
40 66 0.259677
39 80 0.0589859
40 65 0.111398
38 68 0.0365455
16 38 0.299862
17 64 1.48507e-06
38 109 0.0375166
28 55 0.0741083
33 109 0.0434778
21 63 0.428815
34 108 0.199998
21 62 0.428814
39 7 0.589707
39 34 0.29231
32 61 0.33529
33 107 0.0434778
8 21 0.119611
14 85 0.0203953
30 60 0.672
15 68 0.208108
9 13 5.68619e-05
38 59 0.710812
8 13 4.53324e-05
37 59 0.0135314
9 12 0.652138
12 66 0.000287612
12 58 0.106421
40 104 0.0371326
11 58 0.184453
14 92 0.0203961
44 66 0.166665
14 57 0.0815811
28 78 0.077301
23 56 0.124999
5 55 0.846265
2 55 1.43643e-05
24 12 3.59493e-05
23 75 0.124999
34 54 0.399997
36 53 0.583326
35 52 0.999988
9 52 0.047664
36 51 0.0833338
34 51 0.299995
37 97 0.253472
3 11 0.693032
28 42 0.077301
26 41 0.794104
26 40 0.205879
0 47 6.91928e-07
7 38 0.043773
27 34 0.187498
29 3 3.24168e-06
27 3 0.0624993
23 37 0.124999
36 98 0.0833323
27 79 0.187498
23 36 0.624993
28 38 0.307472
19 38 0.00841468
6 10 0.679649
30 22 0.135981
30 21 4.80162e-06
29 21 0.532663
33 74 0.173911
3 21 0.30637
25 13 0.0900151
0 21 0.0122026
2 20 0.0825869
31 64 0.262889
26 39 5.75834e-06
25 39 0.28823
34 76 0.0999992
25 38 0.573704
13 10 0.0788608
32 2 0.0686279
5 10 0.000715458
2 73 0.053964
22 35 0.187601
29 81 0.311548
9 34 0.145009
22 33 0.0938005
36 79 0.0833323
22 23 0.0938005
22 32 0.0938005
36 95 0.0833323
22 31 0.0938005
33 77 0.0434778
44 82 0.0833324
19 30 0.547299
4 47 6.78637e-05
31 50 0.7371
14 12 0.306547
33 49 0.695644
0 3 6.08846e-07
40 71 0.0371327
0 2 1.96415e-07
8 55 0.0790311
6 55 2.50217e-07
6 20 0.18872
5 20 0.153008
17 3 0.00468523
29 46 0.155774
20 23 0.0456962
3 3 0.000587077
17 11 0.484045
0 22 0.17892
32 48 0.558816
13 72 0.0225346
14 2 1.42302e-06
37 69 0.320923
37 68 0.15859
2 17 0.863424
4 16 0.608931
32 47 0.0372544
0 13 0.761292
30 3 2.58169e-06
38 55 0.0375166
30 70 0.192
13 8 0.428183
10 77 0.018339
13 19 0.0112687
10 19 0.0183378
9 37 0.142893
40 38 0.294722
15 18 0.709428
27 45 0.0624993
12 7 0.046008
17 29 0.502905
10 7 1.8277e-06
7 76 3.30036e-06
4 76 0.0235121
4 7 0.367478
0 7 0.0475729
19 91 0.102619
27 44 0.499994
12 6 0.847272
16 28 0.544684
48 90 0.399996
49 73 0.499994
19 27 0.239441
28 43 0.386505
11 5 0.148279
36 61 0.0833323
48 89 0.199998
20 26 0.639747
10 72 9.51882e-06
14 15 0.550673
8 3 0.801302
11 14 0.518977
10 4 0.568508
7 3 0.000373908
37 71 0.253473
18 25 0.499994
7 2 0.770221
6 2 0.13162
7 13 0.185618
22 7 0.437186
40 5 0.111398
17 13 0.000604017
43 16 0.913329
16 23 0.0777216
18 24 0.499994
10 12 0.371879
