2 0.0147832 0.191115 0.450388 0.251673 0.0505014 0.0381527 0.00094271 0.000262368 0.00218225 0 
3 0.0900789 0.315777 0.509115 0.0485399 0.0220133 0.0121156 0.00109091 0 0.00126931 0 
4 0 0.0627768 0.81471 0.0287889 0.0937239 0 0 0 0 0 
5 0.549022 0.397888 0.0486977 1.44864e-07 0.00220629 0.00218591 0 0 0 0 
6 0 0.239452 0.665155 0.0821992 3.69016e-05 0.0130546 0.000103104 0 0 0 
7 0.0224842 0.168322 0.740162 0.0464418 0.00913639 0.011171 0.00105502 0 0.00122756 0 
8 0.0167225 0.291865 0.476648 0.182276 0.0126448 0.0169687 0.00163973 0 0.00123569 0 
9 7.52886e-06 0.860781 0.109713 0.0294986 0 0 0 0 0 0 
10 0.111604 0.170988 0.411393 0.239311 0.0580793 0.00104377 0.00758029 4.41938e-07 0 0 
11 0.0404213 0.144185 0.634445 0.128369 0.0434644 0.00110139 0.00801345 4.67192e-07 0 0 
12 0.0753333 0.780332 0.109633 0.0347018 0 0 0 0 0 0 
13 0 0.75 0 0 0.25 0 0 0 0 0 
14 3.29275e-05 0.287498 0.236073 0.234562 0.210155 0.0191075 0.0125707 0 0 0 
15 0.0126287 0.227304 0.383902 0.0473188 0.165244 0.0836315 0.00322925 0.0767408 1.79709e-06 0 
16 0.00280012 0.644337 0.34784 0 0.00502197 0 0 0 0 0 
17 0.103235 0.485326 0.0120101 0.244913 0.0538984 0.0596206 0.040997 0 0 0 
18 0.522874 0.472661 0.00115047 0 0.00330878 5.13792e-06 0 0 0 0 
19 3.65418e-05 0.652845 0.157207 0.120013 0.053678 0.0118803 0.00433952 0 0 0 
20 0.0220522 0.213182 0.388318 0.151729 0.117587 0.0913532 0.0116618 0.000442007 0.0036764 0 
21 0.0848717 0.641524 0.262889 0.0107146 0 0 0 0 0 0 
22 0.0484953 0.242537 0.559669 0.0727683 0.0195769 0.0420855 0.0122403 0 0.00262802 0 
23 0.00752532 0.57533 0.403648 0 0.0134965 0 0 0 0 0 
24 0 0 0.105727 0.397798 0.496475 0 0 0 0 0 
25 0.106278 0.391358 0.137557 0.209269 0.0828104 0.0515184 0.0212094 0 0 0 
26 0 0 0.999999 0 0 0 0 0 0 0 
27 0.097045 0.554749 0.125499 0.159467 0.0261467 0.0256466 0.0114463 0 0 0 
28 3.45784e-05 0.644479 0.266324 0.0476022 0.0319165 0.00706394 0.00258026 0 0 0 
29 0.0900704 0.306672 0.370691 0.141885 0.0801325 0.00127696 0.00927176 5.40553e-07 0 0 
30 0 0.227512 0.320949 0.244367 0.072751 0.061084 0.047428 0.0190083 0 0.00690012 
31 0.303225 0.634262 0.0160845 0 0.0463557 7.19742e-05 0 0 0 0 
32 0.151589 0.379402 0.127981 0.256667 0.0395131 0.0332806 0.0115672 0 0 0 
33 0 0.117375 0.538138 0.237484 0.0403874 0.0361155 0.0197249 0.00790536 0 0.0028697 
34 0.146567 0.372092 0.149476 0.196138 0.063549 0.0439301 0.0282473 0 0 0 
35 0.039172 0.258696 0.287553 0.343824 0.060627 0.00122378 0.00890383 5.19102e-07 0 0 
36 0.00880304 0.205909 0.547669 0.20503 0.0146787 0.010153 0.000817932 0.000233632 0.00670514 0 
37 0.146386 0.147445 0.353489 0.23401 0.108294 0.00132828 0.00904744 5.27475e-07 0 0 
38 0.261374 0.731032 0.00195787 0 0.00562717 8.73795e-06 0 0 0 0 
39 0.00586872 0.323739 0.502238 0.118252 0.0227042 0.022574 0.00126299 0.000360756 0.00300059 0 
40 0.0157472 0.29067 0.450473 0.16402 0.0465235 0.0251671 0.00202077 0.000577209 0.00480095 0 
41 0.0170255 0.109217 0.711488 0.0465395 0.0455097 0.0602876 0.00157657 0 0.00835626 0 
42 0 2.39248e-05 0.567504 0.0182933 0.294095 0.00892659 0.0926401 0.0185166 0 0 
43 0.0122498 0.33003 0.334608 0.0491758 0.199548 0.0496914 0.000917974 0.0237781 5.01694e-07 0 
44 0.0477831 0.431852 0.282811 0.0411568 0.104655 0.0513834 0.00111175 0.0392471 6.17084e-07 0 
45 0.0573567 0.37364 0.178212 0.206551 0.0458052 0.0991607 0.0392734 0 0 0 
46 0.504339 0.385818 0.0447321 6.87905e-07 0.0107553 0.0543544 0 0 0 0 
47 0.0591294 0.156596 0.293932 0.294581 0.170661 0.00990507 0.0151949 5.63852e-07 0 0 
48 0.0209232 0.300151 0.320367 0.0538274 0.18175 0.0789793 0.00161407 0.0423871 8.94324e-07 0 
49 0.000152772 0.465348 0.219224 0.153112 0.101249 0.0485194 0.0123956 0 0 0 
50 0.0110537 0.269607 0.416702 0.16777 0.0708974 0.0289179 0.00229021 0.00494714 0.0278148 0 
51 0.504478 0.38568 0.044732 3.5642e-06 0.0546551 0.0104518 0 0 0 0 
52 0.0816533 0.446576 0.0271639 0.266646 0.097694 0.047841 0.0324263 0 0 0 
53 0 0.0796141 0.148944 0.750978 0.0204641 0 0 0 0 0 
54 0.0469938 0.154753 0.337542 0.232503 0.151327 0.00181792 0.0750597 4.70916e-06 0 0 
55 0 0.20607 0.418272 0.221115 0.0552408 0.0471432 0.0337324 0.0135193 0 0.0049076 
